W[0]
-----
0.0101167
-0.00468658
-0.00672438
-0.00465339
-0.00531116
0.00809692
-0.0151171
0.00986054
0.00345641
0.00876299
-0.00179384
0.00201374
0.0045809
-0.00618883
-0.0116749
0.00940241
0.0106589
-0.00327738
0.0102711
-0.00780074
-0.00544846
-0.0145083
0.0073371
0.0235131
0.0063102
-0.00936996
0.000274115
-0.00559828
0.0313541
0.0129985
0.00835835
-0.00247638
0.00448248
-0.0065326
-0.00515762
-0.0136668
-0.00280489
0.00039838
0.00352519
-0.000651892
0.00434867
-0.00518213
-0.00504599
0.00105809
-0.00698482
-0.00632707
-0.00232543
-0.00759864
0.00196302
-0.000526824
0.00377892
0.00286497
-0.00380833
0.00950877
-0.00524219
0.000179082
-0.00769665
0.000522123
-0.000749785
-0.0050796
0.00639151
0.00102294
0.011097
-0.0130159
-0.000678922
0.00351304
-0.00391797
-0.00653412
-0.00975864
0.00166306
-0.00669763
-0.0068874
-0.00248115
0.000198131
0.00639173
0.00546068
-0.0036243
0.00572461
0.0148663
-0.00245487
-0.00162919
0.0126455
0.000528783
0.00935884
0.00195461
0.0151536
0.00229971
0.00603279
0.0132111
0.00848226
0.00726569
-0.00194624
-0.0116088
-0.00546846
0.00899503
0.00387242
-0.00354692
-0.0019183
-0.00156403
-0.0258539
0.00735601
0.00205238
-0.0130261
-0.00380925
0.00318007
0.00303801
0.00136036
0.0181277
0.0132187
-0.0131249
0.00553678
0.0158481
0.00834926
0.00261461
0.00790851
-0.00428094
0.0106334
-0.00597104
0.00722627
-0.00106431
0.00743554
0.00464762
-0.0123116
0.0035954
0.00957426
-0.0078156
0.00436447
-0.00637528
0.0102914
-0.0221121
-0.00823955
-0.00237548
-0.0127898
-0.00769783
-0.0219775
-0.0107152
0.00344119
0.00301147
-0.0164076
0.00482578
-0.0136494
-0.00615843
-0.00090591
-0.00606014
0.00106317
-0.000888475
0.0104375
-0.00279001
-0.00525752
-0.014007
-0.00254797
0.00578619
0.0100406
-0.00617071
-0.0128774
0.0126498
-0.0145093
0.00166617
0.00999538
0.0150432
-0.00381479
-0.00327062
0.0143549
0.0100814
0.0132241
-0.00936105
-0.0149728
0.00346996
0.000568568
0.000747174
-0.0048989
0.00970043
-0.00517649
0.000515831
0.00174596
0.00719205
0.000580983
0.00411845
0.00771014
-0.00899975
0.00638061
-0.00379909
-0.000545934
0.00849165
-0.00156476
0.00342677
-0.0137829
0.0074212
0.0075621
0.00321965
-0.00575865
-0.00346137
-0.0125925
-0.00638934
-0.00305358
0.0111975
0.000174764
0.0123252
0.017642
0.00879044
0.00769164
0.000537039
0.00815563
-0.00366803
0.00964611
-0.0125682
0.00224866
0.00923166
0.00105515
0.0154974
0.00672294
0.00723329
6.99218e-05
0.0102952
-0.00501168
-0.00352937
-9.21777e-05
-0.00334859
-0.00795756
-0.00335669
-0.00547683
0.00780463
0.0107973
-0.00624661
-0.00480788
-0.00539424
-0.00737119
0.00207498
0.0125564
0.00944065
0.011734
0.00379625
0.00198987
0.00185185
-0.0135498
0.00781373
-0.00669989
0.00171742
-0.00653509
-0.00246944
-0.0118779
0.00515405
0.00525939
0.00211295
-0.000725209
-0.00499981
-0.00598711
-0.00782588
0.00595276
-0.0137429
0.0069122
-0.0142365
-0.000644409
-8.70331e-05
0.00968907
-0.0121768
-0.00378778
-0.008372
-0.0243408
-0.0033288
-0.0139225
-0.00886403
0.00888579
0.0146015
-0.00287568
0.0142258
-0.0145834
0.0073979
0.0138576
0.0118843
-0.000485915
0.0114926
0.000664769
-0.00303898
0.00742761
0.000391631
-0.00577543
0.00419915
0.00342113
-0.00187989
-0.0112568
0.00295044
-0.00403451
-0.0106002
-0.000637461
0.00573237
-0.0288013
-0.0162306
0.0145709
-0.0105211
0.00311375
0.00505096
0.0019812
0.0112241
0.00609266
-0.00799984
-0.000279839
-0.000370815
-0.000851785
-0.00714294
0.0113212
0.00181811
-0.00832907
-0.00550181
-0.00553819
-0.00688337
0.0150885
-0.00319716
0.00115326
0.0135057
-0.0023569
0.0150576
0.0039052
-0.0146699
0.00213512
-0.0193246
0.00432527
-0.000633751
-0.00973397
0.0128803
-0.00863989
0.0106068
-0.00684604
0.00446088
0.00604086
0.00721234
0.00598885
-0.00360427
-0.00632224
-0.0075578
-0.00290198
-0.00552667
-0.010826
-0.00201803
0.00440938
0.00191857
-0.00374
-0.00472623
0.000611291
-0.00626159
0.0220902
0.002087
-0.0112161
0.00631022
0.00482378
-0.00290356
-0.000567757
0.00629775
0.0116248
0.00700203
0.0149063
-0.00480482
0.0117248
0.00223475
-0.0166745
0.0055058
-0.0168835
-0.00149984
-0.00414149
-0.00257658
-0.00471126
-0.00637893
0.0104278
-0.011718
0.00250044
-0.00805095
0.00514047
0.00635618
-0.0116564
-0.00121576
-0.0128973
-0.00443467
-0.0159133
-0.00766798
0.00243651
0.017552
0.00212584
0.00477794
0.00146533
0.0159622
0.00702502
-0.00321073
0.0102475
-0.000482141
-0.000337452
-0.00969138
-0.000939419
0.0015805
0.00604405
-0.00349959
0.00889969
-0.0130419
-0.0051772
0.000148437
-0.00191156
0.0063021
0.00636971
-0.0202793
-0.00633053
0.00404908
-0.00558071
-0.0104037
0.0102073
-0.00380798
-0.0073263
-0.00166221
0.00658114
0.00142443
-0.00238926
0.00656753
0.0127717
-0.0021039
-0.0164304
0.01045
-0.00380833
-0.0169031
0.0117919
-0.0132438
-0.00273028
0.0031298
0.00371467
-0.00527221
0.0277271
0.00274316
0.0164981
-0.00434401
0.00604909
-0.00886581
0.00921782
-0.0056607
0.00143561
-0.00133011
-0.00403916
-0.0189721
0.0107634
-0.00385752
0.00387059
0.00591131
0.0031096
0.000950676
0.0110612
0.000453148
-0.014015
0.00571187
0.00561375
-0.0140867
-0.00653498
0.00292361
-0.0168572
-0.00114566
-0.0186266
-0.00449539
-0.0145834
0.00645759
-0.0074948
-0.00282213
0.0253871
-0.0146116
0.0067568
-0.000689485
-0.0104805
-0.0191499
0.00720753
-0.010245
-0.00723918
-0.00351074
-0.000672517
0.0112475
-0.0220145
0.00691934
-0.00352451
-0.00607164
-0.00678321
-0.00705309
0.0083059
-0.00521554
-0.0038105
0.00760566
0.00326783
-0.00596692
0.00342674
0.00700647
0.00122577
-0.00488199
-0.000307872
-0.00857916
-0.00298997
-0.0111283
0.00466852
-0.00358201
0.00408976
-0.00487693
0.0114447
-0.0159356
-0.00871048
-0.00639871
-0.007825
-0.00514122
0.00929168
0.0109332
0.00588629
-0.000683133
0.00240969
0.00245678
0.0114529
0.000441762
-0.00382057
-0.00118843
0.0050004
-0.00400702
0.00355612
-0.00574074
-0.00925815
-0.0143624
-0.00570541
-0.00873091
0.00143289
-0.00353769
-0.00821529
-0.0016312
-0.00213451
-0.00129467
-0.00369676
-0.00525383
0.00533395
0.0112864
-0.00231396
0.00100557
0.0145766
-0.00685514
-0.00349164
0.00644177
-0.0196154
-0.00510346
-0.00615275
0.0026613
-0.00567961
-0.00502984
0.00914841
-0.0132392
0.0042804
-0.00554281
0.0175241
0.000756909
-0.00683322
-0.00902208
0.00310442
0.00507826
-0.00817785
-0.000995393
-0.00704106
0.0119351
-0.00726074
0.000494251
0.0109957
-0.00678803
0.00760589
0.00173679
-0.00465238
-0.00863268
0.00982808
-0.000201928
-0.00309091
-0.00852785
-0.0105823
0.00225842
-0.00178528
-0.0030144
-0.00393368
-0.00634945
-0.0109245
0.00250958
0.0162625
0.00225543
0.0045175
-0.00870229
-0.00113187
-0.00335574
-0.0110848
9.10154e-05
-0.0075701
-0.0208885
-0.0183719
0.00149441
-0.0010584
0.000723959
0.00184796
-0.00313527
-0.00387339
0.00556087
-0.0116701
0.00228027
0.0054939
0.00693703
0.00340476
0.0041628
0.00423929
-0.00718954
-0.00579876
0.00208287
0.00389337
-0.0200272
-0.0241734
-0.0161786
-0.00853199
0.00119153
-0.00257793
-0.0080411
0.00282867
0.00498297
-0.00306384
-0.0108509
-0.0186648
-0.00590344
0.0134104
0.00716044
-0.00116588
-0.00403442
0.0136186
0.0114828
0.00364534
0.0143663
0.00293933
0.00590421
-0.000804541
-0.00667306
-0.0135705
-0.00958325
0.00924743
-0.00898345
-0.00518486
-0.0141666
0.0104872
0.00303067
0.00752224
0.0144299
-0.00227228
0.0025924
-0.0148603
0.0029063
0.00810971
0.0153971
-0.00994297
0.00972134
0.00944019
-0.00224433
-0.00633687
0.00876546
0.00140222
-3.85948e-05
-0.00345943
0.025996
-0.0123156
0.00134665
-0.0158716
-0.00207808
-0.00449516
-0.0153328
-0.00302869
0.0111424
0.0104777
0.00350483
0.00154136
0.00626782
-0.00142643
0.00211605
0.0110323
0.0148161
-0.0137851
-0.0156302
0.00226146
0.00569365
0.0118616
0.000143449
0.0076723
0.000209836
-0.00744903
0.0166242
-0.0216151
0.0100161
0.00788226
0.00622526
0.0144293
0.00134648
0.000146489
0.0182007
0.00804726
-0.000717277
0.00278186
0.0239231
0.00470572
0.00353663
-0.0283906
0.0117875
-0.00653904
0.00536161
0.0235069
0.00302048
0.0111433
0.00239873
0.0023105
0.00427549
-0.014861
-0.00375328
-5.00778e-05
0.0216378
0.000883724
-0.00304081
-0.0141228
0.00271208
-0.00864983
0.00292257
0.012144
-0.00920248
0.0151095
-0.00494321
0.00622488
-0.00637379
-0.00206438
-0.0013013
-0.0070888
0.00279107
-0.00270529
0.00245886
0.0029928
0.00176715
0.00504394
0.00895883
0.00267095
0.0111801
0.00206894
-0.000713859
0.000705819
-0.00299221
-0.003496
-0.0037615
-0.000389644
-0.0075477
-0.00591897
-0.000826267
-0.00750169
-0.00452923
0.0089895
-0.0117148
0.0169121
-0.00678646
-0.00207509
-0.00590341
-0.00866558
0.018773
0.00674385
-0.00173399
-0.0089957
0.00189279
0.0128879
-0.00683094
-0.00949718
-0.00345274
0.00751337
0.00384093
-0.012378
-0.00264409
0.0195363
0.000703889
-0.00619475
-0.00709481
0.0024869
-0.00238321
0.000167797
0.00350758
0.0135798
0.00311984
-0.00142022
-0.00852699
0.0046948
-0.00268814
0.00211078
-0.00397305
0.00351554
-0.00929126
-0.0121705
-0.00454929
0.00970608
-0.006386
0.00972708
0.0136998
-0.00427159
0.00401093
-0.00550002
0.00977595
-0.0148614
-0.00763098
-0.009256
-0.015341
0.0142033
0.0149116
0.0047501
0.0130856
0.000299559
-0.00441923
-0.0206818
0.0104787
-0.00419796
-0.00739487
-0.0115984
-0.01001
0.000335133
1.4276e-05
-0.00500809
-0.00559923
-0.0107222
0.000510407
0.0120091
-0.00444419
0.00859078
-0.0188738
-0.00887345
0.00685887
-0.000466289
0.0108593
0.0070393
-0.0064029
-0.00216736
0.00551768
0.00661022
-0.00348006
0.00450362
-0.00692362
-0.0118477
0.0112518
-0.00453548
0.00351537
0.00817567
-0.0141043
0.0154907
-0.0102888
0.0125374
0.000613513
0.0104193
-0.000418211
-0.00765656
0.00567792
0.00621936
0.00899224
0.00275257
0.00924386
0.00333555
0.00215417
-0.00263385
-0.0115521
0.0195503
-0.00332411
-0.0117432
-0.00492185
0.00949072
0.00154224
0.000613243
-0.00912236
-0.00533628
-0.00685414
-0.00399927
-0.0160523
-0.0139028
-0.00267649
0.00343619
-0.00303852
-0.00340055
0.00192653
0.00636569
-0.000638188
-0.00312667
0.00271296
0.0143116
-0.0139649
-0.0121046
0.00908927
-0.00298154
0.0127062
-0.00821967
-0.000485161
-0.0132724
0.00789648
-0.00440923
0.00704902
-0.0162375
-0.00455043
0.00584856
0.0111833
-0.00280759
-0.00122677
-0.000590264
-0.000420306
-0.00171352
-0.00814195
0.00294466
0.0177358
-0.00421017
0.00246713
-8.45973e-05
-0.00582126
0.0195614
-0.017645
0.00562438
-0.0242379
0.00578079
0.0073265
0.00432102
-0.00404474
0.0046929
0.000827514
-0.0055903
0.0118092
-8.85013e-05
0.0130003
-0.001203
0.00390951
0.00749832
-0.0107041
-0.00618736
0.00543493
-0.0160823
-0.00873807
0.000123048
0.00471956
-0.00960422
-0.00976339
-0.00716754
0.00344621
-0.00126112
-0.0160767
-0.00634113
-0.0105147
0.00723296
-0.012019
-0.0140814
-0.0109397
0.00212242
-0.00316615
0.00613224
0.0150881
0.00185284
0.000945473
-0.00419225
0.0248789
0.00539564
-0.0171046
1.49225e-05
-0.00587491
0.00751228
0.0120083
-0.0114108
-0.023392
-0.00659854
-0.00414558
-0.00278274
0.018012
-0.00594049
0.0027933
0.00919456
0.00509747
-0.00796085
-0.00671565
0.00975423
0.00210512
0.0114565
-0.0149604
-0.0125624
-0.0103166
-0.0159959
0.00502673
0.00210108
0.00163794
-0.00270912
0.00296681
0.00655674
0.00944704
0.00361656
0.00338716
0.00829623
0.00994244
0.00440856
0.00307936
0.0166922
0.00723278
0.00993706
0.00698734
-0.0144173
-0.000261571
-0.00450388
-0.000864584
-0.00140716
0.00835324
-0.00401755
0.00165934
-0.0105393
-0.0148409
-9.56815e-05
-0.0103649
-0.000119353
-0.00234572
-0.00931675
-0.00138522
4.6138e-05
-0.00316557
-0.0082109
-0.00134562
-0.00560166
-0.00625844
-0.0194366
0.00304153
0.000141792
0.00810721
0.00532739
-0.00468743
-0.0139967
-0.00834104
0.00569263
0.00452189
0.00231724
-0.00715984
0.0120931
0.0147729
0.00854978
0.00526451
-0.00364443
0.0154546
0.0100496
-0.000152243
-0.00378793
-0.00705108
0.00663769
0.002854
0.0106013
-0.00574893
0.00802209
-0.000905437
0.00033645
0.00721059
-0.0108718
-0.0262194
0.00846352
-0.00635929
1.93512e-05
-0.00424447
0.00391021
0.00296417
0.00359039
-0.00767566
0.00356405
0.00209768
0.0176536
0.00461786
-0.00761782
0.00252183
0.00162041
-0.00726222
-0.00668305
-0.0179443
0.000691677
-0.0125692
0.00519146
0.00297505
0.00157681
-0.0109262
0.000213672
-0.00154662
-0.00930561
0.000142637
0.00407958
0.0045897
0.00845191
-0.00912641
0.0107011
0.00363116
-0.00806176
0.0162175
-0.0153365
-0.00362294
0.00934222
-9.76876e-05
-0.00566617
0.00271761
0.00265369
0.00394892
0.0148095
-0.000984644
0.00417258
-0.0149744
-0.00973536
0.00663018
-0.00477113
-0.0153999
-0.0165163
-0.00699087
0.0239361
0.00768709
-0.0133792
-0.0088099
0.00227329
-0.0196049
-0.0053154
0.00613985
-0.0033335
-0.00536793
0.0169341
-0.0221034
-0.0117418
0.00456487
0.000291875
0.00473623
-0.000739528
-0.00854787
-0.00386901
-0.00512626
-0.00497418
-0.00066858
0.00357885
-0.00251909
0.00609074
0.0110403
0.00942546
0.0148929
0.00896563
0.00997128
0.0219907
-0.0168268
-0.0118767
-0.020033
0.00427112
0.00449992
0.00527819
-0.004383
0.0134568
-0.0136502
-0.00549633
0.0158318
-0.00931187
0.00548298
-0.00822186
-3.63808e-05
0.00177383
-0.00315441
0.00962108
0.00288423
-0.00282831
-0.00579015
-0.00402569
0.00507653
0.00969999
-0.00634136
0.00628488
-0.0133135
0.0133744
-0.00474873
0.000385667
0.00069489
0.00288054
-0.00474043
-0.00670111
0.00352649
-0.00769992
0.0107952
-0.00644236
0.00476462
0.0116168
-0.00857324
0.00113442
-0.00608225
0.000461331
0.00708428
-0.00887849
0.00866399
-0.00346071
-0.0180311
-0.0089896
-0.00109086
0.0173872
0.00628648
0.0173865
0.00130487
0.0171819
-0.00525974
-0.0146062
-0.00698711
0.0128821
0.0082026
-0.0051062
0.0170835
0.0089654
0.00379476
0.00100813
-0.0149661
0.000312453
-0.0100006
0.0028409
0.0111266
-0.00422072
-0.000414862
0.00494422
-0.000999209
0.00765801
-0.00149497
0.00439981
-7.21913e-05
0.00684089
0.00682302
0.00638055
-0.000575939
0.00397978
-0.0158804
-0.0106552
0.0058605
0.0116346
-0.00161433
-0.00143538
0.00806238
0.00215164
-0.00274661
-0.015271
0.0127184
0.0145138
0.00135418
0.00542305
0.00511742
-0.00151828
0.00144339
0.00146937
-0.00331272
-0.00255677
-0.00340968
-0.00385796
0.00749671
-0.00584916
-0.0185905
0.00793572
0.00172083
0.00980288
-0.00326933
0.00443244
0.00482313
-0.00653805
-0.0116204
-0.00617752
-0.00147315
-0.00924474
0.00244178
-0.00413787
-0.0109685
-0.00622629
-0.00336649
0.00721519
0.0114807
0.00417818
-0.00913474
9.50532e-05
0.0117836
-0.00234215
0.000725411
-0.0110369
-0.00146715
0.00504077
0.00200317
0.00968361
0.000464666
-0.0161463
0.00555445
-0.00327796
-0.0041101
0.00713625
0.00867813
-0.00609799
-0.00263225
0.00699628
0.000816396
0.00412866
-0.00414968
-0.00646245
-0.00770742
-0.0207007
0.00186299
0.00321061
0.0100527
-0.00891897
0.00235924
-0.000867632
0.00368872
0.0107524
-0.00762792
-0.00310939
0.00720217
0.00275375
0.00449265
-0.00955333
0.00735887
-0.0140967
-0.00383766
-0.00493859
-0.000913677
-0.00724396
0.00869278
-0.0168526
-0.00823923
0.00435412
0.00749922
-0.0109576
-0.00637106
-0.00917627
-0.00590824
-0.0127114
-0.000117843
-0.015132
0.0057444
-0.00360824
0.000561617
0.0060788
0.00129015
0.0199806
0.00226314
-0.00256405
0.00895175
0.0159448
0.00532311
-0.00516423
0.00506943
-0.0136145
-0.00450869
0.00744789
-0.00288134
0.0210421
-0.00804009
-0.0154286
-0.00240609
-0.00864929
-0.0179469
0.00512536
0.0119845
-0.00662523
-0.00455721
0.0132252
0.0136395
-0.000989234
0.0092973
-0.0141038
-0.0103552
-0.000495451
0.00620418
0.0113348
-0.0012517
0.00861602
0.00114696
-0.00786345
-0.000820315
0.00785674
0.0188684
-0.0010175
-0.000554162
0.00407605
0.0163027
-0.00415349
0.0006583
0.000676252
-0.000892567
-0.00731504
-0.00265154
-0.0136427
0.00762528
0.0217066
-0.00569364
-0.0029344
0.00629437
-0.0127929
-0.0103421
-0.0073564
-0.00341526
-0.0191631
-0.0041844
0.0163042
0.00219384
0.00896183
-0.0034826
0.0106241
-0.0078067
0.00604076
-0.0138675
-0.00506848
0.00119241
0.00350693
0.00800671
0.0148031
-0.00631678
0.00113593
-0.00120747
0.00163498
0.00555921
-0.00871933
0.00590389
-0.000277205
-0.00370502
-0.0112731
-0.00798479
0.00350764
-0.00480533
-0.0129799
0.0130139
0.0212393
-0.0131828
0.00391679
-0.00459357
-0.00902628
-0.00651961
-0.00976001
0.00536276
0.00435722
0.00408644
-0.0112474
-0.00229981
0.00908151
-0.00545522
0.000843863
-0.010507
-0.00673555
0.00729341
0.0122645
0.00320466
0.000305056
0.00301038
0.0114521
-0.000306873
0.00219636
-0.00159902
0.0155662
-0.0127572
-0.00582468
-0.0177376
0.0108228
-0.00259903
0.00169169
-0.00837367
0.0140311
-0.008996
0.00832901
0.00265224
0.00382456
0.010188
-0.0107132
-0.00984937
-0.00030148
0.00247011
0.00739049
0.00277259
0.00286167
0.00161305
0.00793726
-0.00156293
-0.00468533
0.00315383
-0.00402384
0.000189567
-0.0152522
0.0100113
-0.00844096
-0.00727205
-0.0185717
-0.00906469
0.00518237
-0.000179257
-0.00448275
0.00896333
-0.013918
-0.0145071
-0.00588182
-0.00179037
-0.00256161
0.00717768
-0.0008403
-0.000625552
0.00531315
0.0109973
-0.00346136
-0.000630568
0.00830247
-0.016726
0.0149049
-0.0202673
-0.00651556
0.0100125
-0.0152904
0.0109738
-0.0101094
-0.00334956
-0.0023167
-0.00963794
0.0165756
0.00940192
0.00911281
0.00649207
0.00484361
0.00142589
0.000703465
-0.00716294
-0.00494466
-0.000139115
0.0045851
0.00814065
-0.00339558
0.00170598
0.0188955
-0.00528801
-0.0040329
-0.00264694
0.00163498
0.0032527
-0.00333027
-0.00383582
0.00458846
-0.00867377
-0.00930701
0.015076
0.0106531
0.00306178
0.00401922
-0.0122075
-0.00491305
-0.00155429
-0.00392622
-0.00959534
-0.000506633
0.00547572
0.0113802
-0.0131978
0.00410771
0.00156047
-0.0174733
-0.00761063
0.00595291
0.00765567
0.000850867
-0.00789758
0.00252424
-0.00373428
0.00415948
-0.015472
0.00761345
-0.00654797
0.00149883
-0.0097701
-0.00334635
0.020912
-0.0100624
0.00122693
-0.0105136
-0.000654178
-0.00767354
0.00789515
0.00506995
-0.00804417
-0.00892286
-0.00643498
-0.0126273
0.00765812
-5.5208e-05
0.00633544
-0.00440328
-0.00762405
-0.00592629
0.000141867
0.0130879
-0.00263711
0.000758702
-0.00273381
0.00406593
0.0089531
0.00165038
-0.00212657
0.0154575
-0.013012
-0.00696074
0.00306161
-0.00463881
0.00694426
0.0116951
-0.00388672
-0.00884015
0.0128344
0.00142405
-0.00385296
-0.00129432
0.00489986
0.00791393
0.0110905
-0.00866294
0.0114657
0.00660625
0.00891501
-0.0142798
0.00788996
-0.0101095
-0.00024172
0.00919737
-0.00439499
0.00648271
-0.00685368
0.00716666
-0.00353221
0.0103007
-0.0227171
-0.0074124
-0.0180184
-0.00664173
-0.00930604
-0.00300136
0.000146655
-0.0113154
0.0024107
0.0043289
0.00307797
-0.0130284
0.0145463
-0.00605739
-0.00320374
0.00625586
0.0061692
0.0121129
-0.00638819
0.00334504
0.00993423
0.0143766
0.00917146
0.000593259
-0.00291914
0.00858002
-0.000446063
0.00824734
0.00684983
0.0130636
0.00885491
-0.00141865
0.0174746
-0.00224589
-0.00950624
0.00490167
-0.0213513
-0.0169344
0.00498176
0.00202228
-0.00808683
0.0023646
-0.0122653
-0.00286475
-0.00259121
0.00436779
0.00217014
-0.00181266
-0.00719821
0.00710186
-0.0122645
-0.0225395
0.0132231
0.0160767
-0.0048455
-0.00511007
-0.0044771
-0.000995518
0.00437469
-0.0140232
0.00234249
0.000806353
-0.00319353
0.00154621
0.00345076
0.00171471
-0.00780074
0.0138334
-0.0201678
-0.00148484
0.00286096
-0.0114758
0.0141502
0.00144127
0.000432163
0.0106228
0.000665836
0.0165028
0.00168548
0.00506157
0.000306241
0.0057214
-0.0169405
0.00732598
-0.00878644
0.00558891
0.00201585
0.0121682
-0.0191952
0.0124157
0.00123228
-0.008733
0.0042067
-0.00175133
-0.00230508
-0.00409251
-0.00845687
0.00713244
0.00536803
0.00783162
-0.000387539
0.00504937
0.00509559
0.0136086
0.0053198
0.00744624
0.000733279
0.00650776
-0.00151011
-0.00683013
0.00997205
0.006662
-0.00573799
0.00215942
-0.0142369
-0.0064676
-0.00151849
-0.0103412
-0.00676484
-0.00590341
0.00811577
-0.00168711
-0.00991209
-0.00409553
-0.00714183
0.000732633
-0.00593356
-0.00441789
0.0123451
0.000267383
0.00086323
-0.00121537
0.00108668
-0.00644349
0.0166753
0.0059314
-0.00737088
0.00175296
-0.000743062
-0.00449227
-0.0118313
0.00401424
0.00429975
0.00476813
-0.00893354
-0.00809476
0.0114704
-0.00490414
-0.00413809
-0.000717417
0.0053935
-0.00465994
0.0120235
0.00451894
0.00187595
-0.0222049
0.000298755
-0.0081814
0.00695282
-0.0015228
-0.0129771
0.0110306
-0.0110643
0.00232167
0.00353104
0.00123854
-0.00387348
0.00539164
-0.00533981
0.00354734
-0.00818777
0.000102811
0.00472017
-0.00138166
0.00977096
0.0100672
-0.0112528
-0.00740447
-0.00335345
0.00205348
-0.0159884
-0.00334091
-0.00813445
-0.00117741
-0.00975681
0.0116295
0.00662179
-0.00257622
-0.00274014
-0.00642903
0.0147627
0.00404725
0.00421474
-0.00297786
0.012495
0.00399694
0.002334
-0.013979
-0.00865722
-0.0129041
0.00381775
0.0140743
0.00658034
0.00521712
0.0147699
0.0183135
-0.0101636
0.00630037
0.00375461
0.00762246
-0.0129365
0.0018696
-0.0103611
0.00764147
0.0124587
-0.0102123
0.0221469
-0.00853609
0.0101973
0.00287398
0.00578033
0.00306142
0.0111531
0.00035063
-0.00335436
-0.00388332
0.00286464
-0.00150091
-0.00344336
-0.0112574
0.00445198
-0.00575167
0.0014585
-0.000901962
0.0123651
-0.00127472
-0.00524275
-0.0145763
0.00733442
0.00393382
0.0102001
-0.0132238
0.0073924
-0.00676227
0.00423372
-0.00412661
0.00828968
0.00640221
0.00604212
-0.00332671
-0.0168625
0.0164019
0.00373067
-0.00844923
0.00151531
0.001014
0.00177163
-0.00711315
-0.00270219
-0.00254577
0.00928672
0.00975302
0.00769024
-0.00397247
0.0178162
-0.00707639
0.00249342
-0.00762966
-0.0147133
-0.00709115
-0.00263809
0.0093828
0.00870338
-0.00104818
-0.0183195
0.0107515
-0.0003896
-0.0034364
-0.00796441
0.00832729
0.00206312
-0.000201639
0.0118106
0.00516991
0.021061
0.00493478
0.00535051
0.00615005
0.00707688
0.0122686
0.00491236
0.00305675
-0.00177627
-0.00361141
-0.000511997
-0.0144848
0.00389251
-0.00100416
0.0106276
0.000932798
-0.00998888
0.000584942
-0.00221325
0.00795317
0.00643305
-0.0101459
-0.00692631
0.0231595
0.00254784
-0.00483387
0.00654685
0.0089044
-0.00113459
-0.000942509
-0.000257713
0.00151895
-0.0234682
-0.00468606
0.0041428
0.00585618
0.0177207
-0.0102715
-0.0050125
0.0260219
0.0037431
-0.00749413
-0.00786602
0.00590292
-0.00112207
-0.00174643
-0.00730718
0.00348798
0.00497397
-0.0123437
-0.0116334
-0.0011871
0.00475203
0.0114999
-0.00368218
0.00753025
0.000826597
0.00777819
0.0119667
-0.00839482
-0.00233105
-0.00819774
-0.0136182
0.0107709
-0.000353919
0.00273093
0.00496927
-0.0156705
-0.0158454
0.0118057
0.00414814
-0.00590877
-0.00922576
0.000401485
-0.0146552
0.00698005
-0.00343043
-0.00205633
0.00223565
-0.00333566
-0.0132774
-0.00499371
0.00758594
0.00593925
0.00411394
-0.0161804
0.00516519
0.00333731
-0.00809886
-0.00981809
0.00468049
-0.0150535
0.011507
-0.00239417
0.00290749
0.0030885
-0.00495062
0.00217386
0.00615252
-9.65338e-05
-0.00638776
0.014087
0.00446988
7.49739e-06
-0.00118548
0.00118042
0.000843219
0.00236835
-0.0094829
-0.0096572
0.00556072
-0.00406658
-0.01234
-0.00912046
-0.00134057
-0.00111611
0.00431398
-0.0128811
0.00215802
0.00195238
0.00418891
0.00441864
0.0140637
-0.00228366
0.0128876
-0.00371064
-0.00407315
0.00210205
0.00078529
-0.00558415
0.00416091
0.00866902
0.010029
0.00736403
0.0123436
0.0065116
-0.0135036
-0.000316071
-0.00241936
-0.00479954
-0.00149453
-0.00863215
0.00208614
-0.00690362
0.00322368
-0.00110405
-0.000623367
-0.00212882
-0.00367351
0.00645651
-0.0315019
0.0163584
0.00139743
-0.00151028
-0.0113923
-0.0138325
0.024407
-1.99309e-05
0.0055137
0.00295888
0.0118107
-0.0159186
-0.00171593
0.017296
0.0048878
0.00264235
0.0103565
0.0139869
-0.00208423
-0.000508183
-0.00669632
-0.011585
-0.0095345
-0.0249857
0.00504709
-0.00446778
-0.0103778
0.0215609
-0.00369752
0.00238819
0.0044852
-0.00289819
0.0198121
0.00571943
-0.00947901
-0.00737275
-0.0169973
0.0126214
0.00769514
0.00604232
0.0036283
-0.000745803
-0.00542349
0.0148052
0.00791128
0.00146069
-0.0144978
0.00975206
-0.00482768
-0.00239438
-0.00158608
-0.000774873
-0.00592395
-0.000345492
0.0255522
0.00311837
-0.00342579
-0.00238608
-0.00617354
-0.00327717
-0.00276249
-0.00694959
0.00447282
-0.00984919
0.00436832
0.0119892
0.00724768
-0.000515412
-0.00762131
-0.00146453
-0.00114592
-0.018895
0.0076161
-0.00340838
0.0104438
-0.00680417
-0.00136656
0.0113429
0.00922224
0.00490001
0.00813108
-0.00979698
0.00368495
-0.0147555
-0.00161646
0.0185351
0.00990374
-0.0102281
0.0072026
0.018511
-0.0112735
-0.00297505
-0.00190402
0.00640373
0.00342318
-0.0056665
-0.00546791
-0.0166744
0.000571267
0.00245709
0.0157828
-0.00985481
0.00619892
0.00825371
0.0141164
-0.00402202
0.00689657
-0.0074269
0.000762803
-0.0157764
0.012791
-0.00715834
0.00203474
-0.000919121
0.00238942
0.00205947
-0.00302167
0.00105977
0.0119084
-0.00619048
0.0128243
-0.00457702
0.00156366
-0.0120065
-2.31293e-05
0.00662866
0.00338855
0.0101733
0.00554642
0.0178438
-0.00889706
0.0216151
-0.0120912
-0.00297809
0.0100399
-0.00458645
-0.00161851
0.0136362
-0.010666
0.0107989
-0.010299
-0.0108363
0.0107939
0.000706729
0.000871328
0.0119488
-0.0167508
-0.00064467
0.00563664
0.00981515
0.0124414
-0.0116487
-0.00415851
-0.00256196
0.00392634
-0.00682198
0.00651628
-0.000425543
0.0122173
0.00409933
0.017276
-8.62611e-06
0.0287453
0.00235305
0.016138
-0.00313666
0.012697
-0.000712253
0.00712743
-0.00570575
-0.0124404
0.00765478
-0.012091
-0.00831616
-0.0144526
0.00106738
0.00924435
0.00243257
0.0065984
0.00809725
0.00576131
-0.0123712
0.0106874
-0.00266227
0.00499901
-0.0049728
-0.000163093
-0.0106918
0.00823998
-0.000547261
0.000524676
0.00717526
0.00251484
0.00159691
-0.0018045
-0.00641139
-0.00482443
0.0044037
0.00330269
0.0188149
-0.00494796
0.0074308
-0.015353
-0.00891208
0.00387369
-0.0101349
0.00342569
0.0218508
0.00254892
-0.00120164
-0.0078097
-0.00411183
-0.00787439
0.000298903
-0.00578906
0.00682642
0.0123319
0.00181212
0.0119476
-0.00849831
-0.00415594
-0.0100667
-0.0130451
0.000517722
0.00535548
-0.00813153
0.00599215
0.0029236
0.00855761
-0.000796817
0.00147205
-0.0076678
0.00704072
-0.00182483
0.0132792
0.00912187
0.00227242
0.000491917
0.00396393
-0.00262959
0.00123114
-0.00934417
-0.0162836
0.0105183
-0.0159365
-0.00341457
0.00467161
-0.00996312
0.00369669
0.00738582
-0.0151197
0.000652063
0.00475143
-0.00571004
-0.0116284
-0.00662499
-0.00263387
-0.000826745
0.00987008
0.0246931
0.0111026
-0.00253877
0.00396259
0.00594491
0.0160192
-0.00755125
0.00146909
-0.00530694
-0.0110379
0.00506093
-0.00112692
-0.00050216
0.0126515
0.00695086
0.0162345
0.000305861
0.00872266
0.0182231
0.00368839
-0.00116513
-0.0078045
-0.00666355
-0.00185741
-0.00672453
0.00492231
-0.0129461
-0.000291838
-0.00100597
-0.0125766
0.00491517
-0.00902869
0.00398583
0.00248872
0.00419209
-0.00208518
0.00551699
-0.00241466
0.000759556
0.00690819
-0.0013706
-0.0191177
0.00771792
0.0093112
0.000806587
0.0109328
0.000318782
0.00166051
0.00513714
0.00980113
-0.00683157
0.00257256
0.00996978
-0.00387551
-0.00132173
-0.00576723
0.00919716
-0.00863696
0.010325
-0.00307841
-0.00124622
0.00224104
-0.00679173
0.000517314
0.00721606
0.00137412
-0.0165751
0.00314689
-0.00604344
0.00170238
-0.00200896
0.00613348
-0.00815176
-0.00246791
0.00625429
0.0139669
0.0248668
-0.0153034
0.00788281
0.0175977
0.00268392
0.00707954
0.00468065
-0.00654132
-0.00290962
0.0191848
-0.00692634
0.0155762
-0.00501498
-0.000775448
-0.00927751
-0.0166543
-0.00755979
0.0132605
0.00193553
-0.00891637
-0.00554617
-0.0052379
-0.00583967
-0.00607985
-0.000170569
-0.00444419
-0.0120346
0.0105887
5.04428e-05
0.0213032
-0.0137766
0.000367564
0.00878314
0.00754575
0.00115284
0.00988557
0.0173132
0.00376548
-0.00272652
-0.0129211
-0.00348827
0.000427699
-0.0121851
-0.0149398
-0.01119
-0.00880477
0.0126691
0.0158794
-0.00638663
0.00493887
-0.0223123
-0.000722309
-0.0127127
0.0129138
0.000849273
-0.00388895
-0.0188537
0.00411115
-0.00054394
0.00385679
-0.000124629
0.0089324
0.00627237
-0.000328354
-0.00635093
0.00414309
-0.00981387
-0.00997336
-0.00529907
0.00224863
-0.00362716
-0.00191551
-0.00619974
-0.00176098
-0.017175
-0.00410167
-0.00707574
0.00228254
0.00844729
-0.00277491
0.00535756
-0.00777796
0.00263879
0.00610307
0.00373705
0.00669045
-0.00478479
-0.00119716
-0.00500144
-0.0124767
0.0162909
-0.00958989
-0.00915359
-0.0124754
0.0139819
-0.0172817
-0.00377168
1.39874e-05
0.00510649
-0.00502143
-0.0103377
-0.0200242
-0.00256257
0.001511
0.000339192
-0.00649583
0.00471478
-0.00660396
0.00819128
0.0152855
0.0121251
-0.00552238
-0.00686573
0.011187
0.00173572
0.0118639
0.000568657
-0.00143208
-0.00525221
-0.00378124
0.00016846
0.00451105
0.00658028
0.00883712
0.0198174
0.000597799
0.00292213
8.41978e-05
-0.00777858
0.00674454
0.00327431
-0.00757169
-0.00180304
0.00486229
-0.00829477
0.0101022
-0.000684531
-0.00288654
0.00188759
-0.00665838
0.0180831
-0.00282975
-0.015763
0.00241487
0.000731512
-0.00277425
0.0042391
0.0126742
0.0179846
0.000956557
0.00617807
0.0108551
-0.00176283
-0.00928486
0.0106386
-0.0110723
-0.00541165
-0.00692326
-0.0114553
0.0151446
0.0151158
0.00625762
-0.00154381
0.00349612
0.00684269
-0.00285823
-0.0100219
0.0213678
-0.00727201
-0.0156561
-0.00912887
0.014877
0.00152803
-0.00146195
-0.00490412
-0.00242712
0.00340188
-0.00523293
-0.0134314
0.00879036
0.00501794
0.00233809
-0.0124872
-0.00759143
0.00518667
0.0112164
0.00813157
0.0131777
-0.00819883
-0.0174907
-0.0121718
0.00688379
0.00811044
0.0110237
0.00540531
0.00646014
-0.0149322
0.0147601
-0.0107606
-0.00201902
0.00153948
0.0017882
0.00256008
0.00904295
0.00807428
0.00346642
-0.0082396
-0.0128719
-0.00191332
-0.000740483
0.00596887
0.00756235
7.03419e-05
-0.00384175
-0.00712784
-0.016307
0.0119865
-0.00435697
0.00186538
-0.00474651
0.0119282
-0.00646646
-0.000879638
0.00306505
0.00522874
-0.000648161
0.0040033
0.00059306
-0.00628885
0.00438687
0.00491002
0.00278042
-0.00860485
-0.01167
0.00930663
-0.00967176
0.00325343
-0.00717598
-0.00656243
0.0124568
-0.0258558
-0.00157788
0.00362579
-0.0142799
-0.0149924
0.00902722
-0.014269
-0.00512622
-0.0122753
-0.0215962
-0.0216858
0.0106699
-0.00427665
0.00666245
-0.00751145
0.00899755
-0.000183977
-0.0116523
0.0214932
-0.00435467
0.00151044
0.0260346
-0.00348586
0.00967986
0.0102685
-0.00308361
-0.0080439
-0.0039124
-0.00502142
-0.00521601
0.0156945
-0.000321436
-0.0188145
-0.0311941
0.00247404
0.00607979
-0.00561338
-0.0100284
0.0160768
-0.000240357
0.00819585
-0.0105475
0.0197043
0.00351649
-0.0114825
0.012502
0.00350547
-0.00520757
0.00457703
-0.00120562
0.0124169
-0.00959152
-0.0137283
-0.00619532
0.0148866
0.00279491
-0.0108945
0.00673149
-0.0102414
0.00539112
-0.00937451
0.000593529
0.00901172
0.00753697
0.0137797
0.0109588
0.0119959
-0.00460015
0.000803821
-0.00105781
0.0011391
0.00359619
-0.00578477
0.0130127
0.00692248
0.00241839
0.0126045
-0.00394403
0.00652126
0.00198196
-0.0113369
-0.00215498
0.00603799
-0.000333663
-0.0106319
0.0037731
0.00523525
-0.00022311
-0.00418515
0.00633041
-0.00206346
-0.00309317
-0.0113037
0.00450103
-0.00330839
0.00555327
-0.0197068
0.00846977
-0.00780262
0.00953889
0.016152
0.00348291
-0.00480374
-0.00134531
0.0033904
0.00192173
0.0105486
0.00323306
0.00573648
0.00111422
-0.00481421
0.00885345
-0.00609478
0.00986576
0.000902048
-0.0119571
0.00382859
0.00509484
-4.43662e-05
-0.0012958
-0.00648788
-0.0238339
-0.000679524
-0.000205907
0.00310716
0.0208826
-0.000998927
-0.00490338
0.0289356
0.00839978
-0.00528793
0.00270272
-0.00545073
-0.00374829
-0.00772612
-0.0106297
-0.00110528
0.00493108
-0.00746504
0.00453915
0.00167416
-0.00920717
-0.000890249
0.00563683
0.00462513
0.00524647
-0.0093939
0.00289712
-0.0191214
-0.00457505
-0.00766834
-0.0070132
0.0131191
-0.00929404
-0.00356663
-0.00196253
-0.00654182
-0.00775401
-0.00237179
0.0065039
-0.0105988
0.00843273
-0.00664813
0.00312593
-0.0130078
-0.00185603
-0.006489
0.00578051
0.00249228
-0.00133058
0.00397121
0.00946515
0.00346144
0.0128654
0.00391409
0.00667957
0.00358461
0.00784794
-0.00160324
-0.00617761
0.00859469
0.0104454
0.0198001
-0.00417071
-0.00772773
0.0130922
-0.00472421
0.000344343
-0.0056726
-0.00143127
-0.0149123
-0.0112726
-0.0062336
0.00176786
-0.00464819
-0.00104152
0.00246597
-0.00675016
-0.00883344
-0.00123563
-0.0222632
-0.0121297
-0.0145819
-0.00896996
-0.00809413
0.0074524
-0.00447639
-0.00981503
0.0179433
0.000254277
0.0149788
-0.0117478
-0.00405374
0.000946975
-0.0137058
-0.00943332
-0.00814472
-0.014811
0.00979759
-0.015588
0.00680243
-0.00222167
-0.0015866
-0.0192011
-0.00310334
0.00590212
-0.00400208
-0.0133748
0.0159602
0.00869839
-0.0105139
0.00977224
0.00341975
-0.00702162
-0.00876062
0.0171183
-0.00393402
-0.00584949
-0.00518142
0.00250259
0.00478425
-0.00682532
0.000779351
-0.00677519
-0.014738
0.00290639
-0.00712676
0.00375663
-0.00147138
0.00986006
-0.0112953
-0.00335148
-0.00133613
0.0116873
-0.0048837
0.00125199
-0.00655455
-0.00987178
-0.00270998
0.0050664
-0.0046736
-0.00472217
0.00096526
-0.000747817
-0.00895809
-0.00973506
0.015854
0.000522403
0.0103673
0.00943355
0.0160726
-0.0038292
-0.00442835
-0.00133494
0.0133245
0.000122566
0.00349023
0.000891501
0.000393537
-0.00747234
0.00277929
-0.0136744
-0.00722747
0.00280075
-0.0164544
-0.00441152
0.00361953
0.0116106
0.00486245
0.015578
-0.00971983
-0.0116808
-0.0167602
0.00371807
-0.00361125
-0.00701778
-0.0109446
-0.0106584
-2.52191e-05
-0.0137536
0.0057065
0.00365851
-0.0123424
-0.0173829
-0.000891438
0.00406794
-0.00971318
-0.00913181
-0.001413
0.0141346
0.0113784
0.00587908
-0.00534094
0.00600737
0.00629941
0.00141808
0.00486675
-0.019973
-0.00136477
0.00213719
0.00368122
0.000951908
-0.00605085
-0.00887065
-0.0116028
-0.00132159
-0.0167165
-0.0043264
-0.0134939
-0.00292484
-0.0157441
0.0127372
-0.00842507
0.0229353
0.00642749
0.0230432
0.00198025
0.000922654
-0.019481
-0.000280889
0.00400137
-0.00335145
0.00107534
-0.0107842
0.0108849
0.00423621
-0.000950212
0.00152975
0.0141544
0.00150688
-0.00261019
0.000877599
-0.00172955
0.00668408
-0.0156214
0.000800136
0.013582
-0.00383144
0.00863986
-0.00449103
-0.00799291
0.00366068
0.00592312
0.00636032
0.0116744
0.0151857
-0.00166854
0.00820098
-0.000856759
-0.0193176
-0.00390298
-0.00232713
-0.00551185
-0.00270759
0.00115525
-0.00835155
-0.00749988
-0.0028931
0.00486743
-0.0107363
0.000389403
0.000767038
-0.00956296
-0.00344062
0.012333
0.0108287
-0.00234591
0.00148454
-0.00278858
0.00706506
0.00726978
0.00241697
0.00273817
0.00523224
-0.00161732
0.0200226
0.0140509
-0.000910678
0.00569927
0.00340691
0.00535944
-0.00509902
6.08983e-05
0.00170349
0.00431107
0.0152874
0.00221128
-0.000583697
-0.0126687
0.00407855
0.00809224
0.00516029
-0.00400085
-0.00126072
0.00545252
0.00188821
0.00225693
-0.0165475
0.00754778
-0.0135438
-0.00824911
-0.00563001
0.0104481
-0.00469448
0.0087963
0.0059242
-0.00956775
0.00746944
-0.0229821
0.00809353
0.00691415
0.00969498
0.0162921
0.00939072
0.00702762
-0.00405197
0.000845954
0.00333405
-6.39818e-05
-0.0106882
0.00965591
0.0133954
-0.0122055
-0.00265438
-0.00362834
0.00738605
0.00363928
0.000323216
0.00149042
0.00349566
0.000969801
-0.0130911
0.0122847
-0.00448505
-0.00517013
0.00781332
-0.00698417
0.0017457
0.0109957
-0.00117232
-0.00877694
-0.00682417
0.00993155
-0.00818769
-0.0152121
0.00874596
0.00091599
-0.00222789
0.0094645
0.0149271
-0.00703512
0.0119639
0.009063
-0.00603803
-0.0119624
-0.0101296
0.00416723
-0.00786253
-0.00614937
0.00594561
-0.00467235
-0.0160504
0.00113948
0.00502982
0.00774469
0.00628783
0.000347315
0.00125937
0.00226748
0.00332596
0.00509226
0.010754
-0.00629032
-0.0125643
-0.00228445
-0.00565748
-0.00198488
-0.00307744
0.0112856
0.000994496
-0.00453467
-0.0015119
-0.00596861
0.00883937
0.00793025
-0.0040729
-0.00994553
0.001562
0.00251506
-0.00451067
0.00826959
0.00153713
-0.00958157
-0.00926036
0.00111387
0.00812705
-0.00836395
0.00660033
0.0135321
-0.00268386
0.00999242
-0.00815847
0.00296976
-0.0235528
0.0145253
0.0318631
0.013103
-0.0140221
0.00229158
0.0195318
0.0110695
-0.00989748
0.0402573
0.034164
0.0138453
0.00489844
-0.030578
-0.00181578
-0.00227323
0.0143677
0.0137603
0.0404149
-0.00767263
0.00649451
0.00649086
-0.000917089
0.010138
-0.00264377
0.0123037
0.00287343
-0.0037662
8.35657e-05
0.00849674
0.00875565
0.00418793
-0.0136656
-0.00547929
0.00169584
0.0159995
-0.00358337
-0.00204595
0.0145244
-0.020774
-0.00381065
0.0504988
0.02019
0.00324398
-0.00355315
0.00887715
0.0143538
0.0074479
-0.00858424
-0.00737899
-0.00792438
-0.0390653
0.00170345
0.00208631
-0.0311403
-0.00829563
0.00572537
-0.00358266
-0.0106375
0.00467984
0.00810459
0.0026603
-0.00440211
0.013112
0.0023518
2.73512e-05
0.00924021
-0.00540908
-0.00537828
-0.00123225
0.00276685
-0.00415376
0.0049422
0.00247417
0.0110723
-0.00445385
0.0158881
0.0137466
0.0179304
0.00564233
0.00659694
-0.00771373
0.0032928
-5.51377e-06
-0.0133406
0.00638426
-0.0231457
-0.0175686
0.0135212
0.0120995
0.000920159
0.00448923
-0.0084828
-0.00590515
0.00643466
0.0158432
-0.00719489
0.0106058
0.0431058
-0.0316647
-0.0190157
-0.00939267
0.0129451
-0.0247167
-0.0542507
0.00365582
0.014641
0.0142578
0.0588959
-0.00232879
0.0221968
0.00516806
-0.0095004
-0.0150394
0.030875
0.00435721
0.0817822
-0.00196511
-0.0455872
-0.0192869
-0.00753331
0.0184411
-0.0160212
-0.00156728
0.0346564
0.00286774
-0.0132776
0.00515695
-0.0158022
-0.0131561
0.0253662
-0.0533933
0.00929692
-0.0399781
-0.0234632
-0.031996
0.00898027
0.0307741
-0.00225284
0.0575981
-0.0211226
0.0112386
-0.0187863
-0.0146226
0.0464142
0.00884826
-0.00413796
0.00247702
0.0114801
-0.0679605
0.0178786
-0.0189766
0.0156015
-0.0645358
0.000417173
-0.0363027
0.0464067
0.00198376
0.0206096
0.00765581
-0.000249391
0.000703501
-0.0101696
0.00133017
-0.0334695
0.0101009
-0.019669
-0.0162486
-0.00538542
-0.0197782
-0.0109019
0.00865945
0.0286832
0.0247252
-0.00158949
0.0209995
0.0866155
0.00596358
0.00994543
-0.00464997
-0.00815716
0.0310984
-0.0122107
-0.00555931
0.020606
-0.0173502
0.0206138
-0.0432176
-0.00252947
-0.0035369
-0.00548895
0.00527534
0.0286743
-0.00560698
-0.0384325
-0.00783928
0.0118457
-0.0260174
-0.0118397
-0.0262454
0.00961363
-0.00722265
-0.0450013
0.0321139
0.00739722
0.00242032
0.0389668
0.00326917
0.00492463
0.0220055
-0.0115523
0.000349381
0.0437565
0.00520419
0.0767284
-0.00179923
-0.0363219
-0.021907
-0.0169478
0.0170721
-0.00180823
-0.000113076
0.015932
-0.0178435
-0.0243832
-0.00441872
0.000617869
-0.00646745
0.0195892
-0.0311693
-0.00768616
-0.0276749
-0.00959986
-0.030262
-0.000328804
0.0555847
0.0072753
0.0251485
-0.0127584
0.00215276
-0.0187982
-0.0219341
0.0432406
-0.00343945
0.00514088
0.0134545
0.00162257
-0.038312
0.0271612
0.02834
-0.015065
-0.0567813
-0.00381654
-0.05061
0.0357324
-0.00229205
0.0141547
0.0234887
-0.00394571
-0.00444673
-0.00468192
-0.00854034
-0.0212468
0.00873904
-0.00281951
-0.000353589
-0.000828668
-0.0114631
-0.0166283
0.00844735
0.0200423
0.0266457
0.021485
0.0273357
0.0933378
0.00496354
0.00607455
-0.00308215
0.00161494
0.0350805
-0.024739
0.00768487
0.00362391
-0.0231454
0.0139539
-0.03985
-0.00324106
-0.00835068
0.0200277
0.000597261
0.0383276
-0.0227384
-0.0448336
0.00311412
0.0261868
-0.0216089
-0.00348684
-0.00974298
0.000862536
-0.0167478
-0.0107213
0.0174099
-0.000326858
0.00471159
0.0297963
-0.011219
-0.00988878
-0.0077908
-0.00437802
0.00328846
0.0305114
0.00487459
0.0468921
0.00152698
-0.0296542
-0.0199587
0.00910098
0.0122538
-0.0111527
-0.015204
0.0287185
-0.00892048
-0.028262
-0.0122909
0.00527324
0.0152679
0.0414045
-0.0237112
0.00761254
-0.0170239
-0.016391
-0.0362949
-0.00748522
0.0348763
-0.00516436
0.0286951
-0.0121824
-0.0027038
-0.0136196
0.00667448
0.018991
-0.00704075
-0.00625361
0.0256873
0.0208587
-0.00543456
0.0120721
0.0168952
-0.00302721
-0.0416091
-0.00421406
-0.0281663
0.00816167
0.011057
-0.016355
0.0319179
0.00667595
-0.00522207
0.00734321
-0.0197899
0.0201496
-0.00650253
-0.00996936
4.73011e-05
0.000607993
-0.00238802
0.00210207
0.00958336
0.0153388
0.0143752
0.0175893
0.0299696
0.0752476
-0.0135739
0.00680378
0.00614831
-0.0145939
0.0026161
-0.0213204
0.000435113
-0.00107382
-0.0217609
-0.00601327
-0.018083
0.0101481
0.0162457
0.0115201
0.0252824
0.027043
-0.0123074
-0.0253681
-0.00155195
0.0282724
-0.00482877
-0.0356621
-0.00674247
0.00432334
-0.00635622
-0.0254582
0.0282475
0.00201391
0.000200286
0.0217787
-0.0163926
0.00703401
0.00692345
-0.00219112
0.00925265
0.00395922
-0.0104028
0.0387714
-0.0290948
-0.0221869
-0.0181208
-0.0174843
0.0133731
0.0052681
-0.0017836
0.0145223
0.000867929
-0.0408196
-0.0115502
0.000993528
0.0126021
0.0254535
-0.0152436
0.0207209
-0.0110452
-0.0153877
7.32382e-05
0.00501585
0.0361471
0.014493
0.007996
-0.0136615
-0.00520937
-0.0264773
-0.0176619
0.0311113
-0.00563638
-0.000256236
0.0650268
0.00808633
-0.00704306
0.0169645
0.0344178
-0.0149653
-0.0412846
0.00149937
-0.0171494
0.0105724
0.00219295
0.00976885
0.0499316
0.00598078
0.00564514
-0.0224346
-0.0417979
-7.86147e-06
0.00371282
-0.00491694
0.0110386
0.0259234
0.00270102
0.0141664
0.0221487
0.0255542
0.0240311
-0.0113713
0.0247798
0.0619535
-0.000507834
0.00756118
-0.0125326
0.00651548
-0.0158465
-0.00974636
0.0155701
-0.000310171
0.000813815
0.0054831
-0.0165176
0.00544626
0.00380869
0.0114122
0.0143312
0.0228584
-0.0389687
-0.022487
-0.00185437
0.000326174
-0.00589623
-0.0372172
-0.0270916
-0.0126301
-0.00981253
-0.00868632
0.0381702
0.0071179
-0.00411371
0.0156982
-0.0299528
-0.00121475
-0.0123275
-0.00322698
0.0410682
0.0139299
-0.00940347
0.0425866
-0.018174
-0.00987328
-0.0100588
-0.035724
0.00350599
-0.0103381
-0.00401186
0.0195987
-0.0116598
-0.0538308
-0.00966148
0.00865602
0.0230765
0.0238833
0.0120343
0.0139042
-0.0119472
0.0144927
-0.0169252
-0.0126182
0.0293776
-0.00194892
-0.00454792
-0.00224065
-0.00878511
-0.0346135
-0.0116393
0.00864972
0.00299947
-0.00897728
0.0545162
0.0150519
-0.00428348
0.0318101
0.0329431
0.0106866
-0.0365623
0.00148254
-0.0141979
-0.00408574
-0.0109666
-0.0257348
0.0491884
0.000886061
-0.00724308
-0.00472082
-0.0333491
-0.00904218
0.00687119
-0.00182544
0.00416479
0.0212526
0.0057195
0.00559702
0.0157135
0.0312678
0.0469652
0.000659149
0.0125253
0.0711755
-0.018358
0.015694
0.00332797
-0.00434282
0.000118106
-0.015749
0.00273834
0.000727853
-0.00597965
-0.00469303
-0.00717063
0.00692534
0.0126271
0.0111478
-0.00146745
0.0203764
-0.038852
-0.000647262
0.00386758
-0.0144048
-0.00890566
0.0506971
0.00731272
-0.00744401
-0.0150778
-0.00454466
-0.00825062
-0.00153171
0.0418779
0.0499409
0.0234203
0.00522322
-0.0143478
0.00657485
-0.00184806
0.0352332
-0.011636
0.0502929
0.0287802
-0.0242959
0.0193807
0.0365932
0.0326289
0.00213041
0.00579035
-0.0139121
-0.0146792
0.00347091
0.0219512
-0.00890419
0.00627506
-0.00320247
-0.047499
-0.0226557
0.008758
-0.0252042
-0.0114252
0.00752027
0.00608905
-0.00551283
0.0701468
0.0155588
-0.00480742
-0.00527171
0.0211373
0.0279166
-0.0195988
0.018026
-0.00165625
0.0129667
-0.0351738
-0.00769113
-0.0327726
-0.00876314
-0.0256837
-0.00271488
-0.00837605
0.00723243
-0.0101787
0.0151155
-0.00982082
-0.00808196
0.0230874
-0.00998267
0.00101858
-0.0198233
-0.000463752
0.00917337
-0.0191118
-0.00470509
-0.0115102
-0.0108917
-0.00865661
0.00428772
-0.0108513
0.0156133
0.0218968
-0.000417469
-0.00379722
0.0247317
0.0201471
-0.00922197
0.0154471
-0.00304253
-0.021406
-0.0279221
-0.00423128
0.0348718
0.00551046
0.0107477
0.00395571
0.00997816
-0.0240959
0.00331717
0.0261208
-0.0322895
-0.00297915
-0.00234738
0.00536879
-0.00784541
0.000684619
0.00554664
-0.00709594
0.00415747
0.00110263
-0.012205
-0.00341298
-0.00216243
0.00432363
0.00836329
0.00315459
0.0142083
-0.0175469
0.00413342
0.0033987
0.00301472
-0.0100555
0.0217031
-0.0065688
0.00667689
0.0161234
-0.000631032
0.0136497
-0.00116358
-0.00248888
0.0155041
-0.00550486
-0.00301581
-0.00745078
0.00574788
0.00563136
0.00526715
-0.00135287
0.00153037
-0.00215516
-0.00334242
0.0124101
0.00678076
0.00778256
0.0159333
0.0032106
-3.27794e-05
-0.00651835
-0.00580935
-0.00719593
-0.00660088
-0.0175796
0.00246339
-0.0112422
-0.0178457
-0.0109203
-0.0068093
0.00358335
0.00676104
0.0093763
0.0144496
-0.00819006
0.00425865
0.0078444
-0.0139621
0.00708574
-0.0149346
0.00233913
0.00251431
0.00216834
-0.00533626
-0.002615
-0.0224693
0.022285
0.0149491
-0.0122252
0.00901569
0.0102885
-0.00181598
0.0169297
0.00956139
0.00479838
0.00459642
-0.0129769
0.00043262
0.00236016
0.00931126
0.00107089
0.00388538
0.000402082
-0.00409097
0.00140681
0.00685009
0.00664613
0.000954868
0.00259423
0.00687871
-0.00235844
-0.00578549
0.00644748
0.00273333
6.17053e-06
-0.0111307
-0.0142712
0.00794236
-0.00411861
0.0131472
0.00380923
-0.00781849
-0.00645751
-0.00304786
-0.00688162
0.0026473
0.00113715
0.00391599
0.00234858
-0.00464564
0.0097069
0.0226797
-0.00518539
-0.00595304
0.0026038
-0.00274615
0.00234366
0.0012044
0.00396902
-0.0112103
-0.00736127
-0.0114824
-0.0173489
0.000521379
-0.00822164
-0.0085019
0.0121585
-0.00100841
-0.000896765
-0.006814
-0.0109107
-0.00781817
-0.0178968
0.00524476
-0.0134567
-0.00620851
-0.0213896
0.00795639
-0.0275741
0.00627487
-0.00173049
-0.0141625
0.00123885
0.0030963
0.00486324
0.011179
0.00168127
-0.00779547
-0.0121394
-0.00611102
-0.00859404
-0.000425984
0.000441044
0.00688879
-0.00501572
-0.00625771
-0.000135636
-0.0065592
0.0107713
0.00947744
0.00892046
0.0126378
-0.00467967
-0.0241859
-0.0109002
-0.00820901
-0.00726664
-0.00278415
0.00766701
0.00120088
-0.00419294
0.00127908
-0.0104426
-0.0108236
-0.0114929
-0.000659294
-0.0165905
0.000962297
0.0191619
0.0110041
-0.00887954
-0.000733165
0.0152521
-0.00100712
0.00454739
-0.00840251
0.00971626
-0.00725966
-0.0188284
0.0164282
0.0026838
-0.000990869
0.00174045
-0.012818
0.00600486
0.00129948
0.00850706
0.00802617
-0.0046019
-0.00760933
-0.0236445
-0.0186728
0.00467996
0.00890912
0.016871
-0.00139217
-0.000102354
-0.00131439
-0.00217365
-0.00923288
-0.00249445
0.00419174
-0.00381545
-0.00940214
-0.00180108
0.00133001
0.0121481
-0.00246555
0.00772666
-0.00812934
-0.00378835
0.0126118
0.015446
-0.00888298
0.0214178
0.0265471
-0.00271135
0.0158969
0.00898013
0.00737491
-0.00224144
-0.000644631
-0.0212541
0.00538325
0.0015696
-0.00714624
-0.00309788
-0.00288279
-0.000608271
-0.00536242
0.0135207
0.00641378
-0.0049144
0.0100573
0.00843156
0.0109952
0.00360331
0.00309711
0.00601532
0.0125787
0.00512935
-0.0088502
0.0267901
-0.00500663
0.0094578
0.00250068
-0.00989463
0.0133313
-0.0134766
-0.0195137
0.0197332
0.0204014
0.00251726
0.00391566
-0.00507219
-0.00173809
0.00319403
0.000270815
0.00539138
0.0148536
0.00319763
0.011911
-0.0207656
0.00117236
0.00983869
0.000385405
0.0222505
-0.01208
0.00898925
-0.0112123
-0.00249536
0.00618112
-0.00283547
0.0114682
-0.00618967
0.00813901
-0.0142509
0.0171293
-0.00914379
0.00258936
0.0153464
-0.00920935
0.00317149
0.00587281
-0.0130737
0.00464116
0.015451
0.00447367
-0.016817
-0.0097601
-0.00987473
0.00784532
0.0132098
0.0154778
0.000837588
-0.0135221
-0.0191589
-0.00618583
0.00503123
0.0275209
-0.00760961
0.00194951
-0.0140227
-0.00377896
0.0137358
0.0077278
0.00545967
-0.00880583
-0.00947104
0.00983144
0.0041355
-0.00575602
0.029229
0.0169068
-0.0108438
0.0163292
0.0237599
0.00368522
0.00155445
-0.00202136
-0.0107955
-0.0101666
0.00341174
-0.00653379
0.00351396
-0.00120715
0.0106806
-0.018677
0.0270016
-0.0033959
-0.0122443
0.00133696
0.0263022
0.00906115
-0.00763744
-0.000824741
0.0225331
-0.0135645
0.0142526
-0.00483679
0.0155013
0.0153714
-0.00832786
0.00618482
-0.0190869
-0.00105687
0.00750394
0.0026036
0.0332397
0.0108948
-0.0118531
0.0122794
0.00190861
0.0115162
0.0228005
-0.0179412
-0.0117863
-0.00259207
0.00493667
0.00171126
0.0046639
0.0120254
-0.000887884
-0.00333625
0.0232841
-6.63224e-05
0.0173811
0.00346513
0.00938768
-0.00893879
-0.00378715
-0.0069044
-0.01192
0.00415185
-0.0100562
0.0241513
-0.00934913
-0.0156884
0.00581106
0.00609408
-0.00922687
-0.00689042
-0.0071491
0.00154195
0.000613588
0.00851138
0.00284293
-0.0100732
0.00289002
-0.00586797
-0.00327778
0.0119049
-0.00336297
0.00898549
-0.00911981
-0.0166985
-0.00537584
0.0053009
-0.00256918
-0.0137803
0.00186262
0.00318512
0.00968484
-0.00874393
-0.00484651
0.00258703
0.0178403
0.00255251
0.00953273
-0.00538571
-0.00398308
-0.0103516
0.00908281
-0.0129932
-0.00866897
0.00560937
-0.0147839
-0.00633829
0.0121527
-0.011523
-0.000846159
0.00241158
-0.00941339
-0.00740493
-0.0111281
-0.0063802
0.0121563
0.00928461
0.0124977
-0.00756973
-0.0115769
-0.0041295
-0.0157114
-0.00106619
0.00336892
-0.00174083
0.00138052
-0.0036475
-0.00198367
0.0055545
-0.00748958
0.0104123
0.00110825
0.0144149
-0.00993587
-0.0123549
-0.00180515
0.0162792
-0.00722595
0.00459202
-0.0017509
0.00473517
0.0066247
-0.00456442
-0.00466331
0.00495975
-0.0138544
-0.0108508
-0.00263251
-0.00100591
-0.00255579
0.000919202
-0.00180184
-0.000357698
0.0127645
-0.0010665
-0.00456584
0.0225708
1.09091e-05
-0.00515572
0.00174098
0.0026686
-0.00915323
0.0110378
0.00258979
-0.010546
0.00262312
-0.000508497
-0.00897681
0.0075513
-0.00175897
-0.0154519
0.0117189
-0.0132776
0.00132316
-0.00121198
-0.00335824
-0.0130035
0.0038298
-0.00728157
-0.00382754
-0.00729338
0.0101323
0.0011743
0.00572655
-0.000979237
0.00137014
-0.00501492
-0.00463361
-0.00688957
0.00895696
0.0060351
0.0195887
-0.00682369
-0.008419
-0.00458111
-0.000815346
-0.00215501
0.0120542
0.0160658
0.00829681
0.00266715
-0.00965511
0.0130613
0.00364489
-0.00471601
-0.00672662
-0.0056647
-0.0158387
-0.00179918
0.00688887
0.016351
0.00767014
0.000808118
-0.00923456
-0.0111073
0.00490515
-0.00997455
-0.00563721
0.000921243
-0.00267027
-0.00127701
-0.00106724
0.00468157
0.00415222
-0.0109752
0.011034
-0.0141555
-0.00098359
-0.00452949
-0.00580591
-0.000787276
-0.00144737
0.00721315
-0.00240353
-0.00732084
0.0239244
0.0119204
0.0171989
-0.00263254
0.00386835
0.0027572
0.00152156
4.96546e-05
0.00111916
0.00852964
0.00238153
0.00298622
0.00303584
-0.00124204
-0.00608053
0.000107444
0.0121635
-0.0016749
0.00913617
-0.00494121
0.00743332
0.000313671
-0.0100217
-0.0220191
-0.0109843
-0.00267142
0.00166809
-0.0122221
-0.00860366
0.000618187
-0.00544643
-0.0203372
0.000879805
-0.00587561
-0.000670548
0.00861144
-0.00127451
0.0190827
-0.00532607
0.016162
0.00779826
0.00903636
-0.000243422
-0.00778422
0.00848212
0.0133166
0.00473244
-0.011641
0.0200248
-0.00141273
0.00601664
-0.00324804
-0.00272967
-0.00686219
-0.00795284
0.00887424
-0.00798678
0.00360759
0.00308836
0.00514793
-0.00587498
-0.00921759
-0.00355165
0.00351061
-0.0145518
0.00895797
0.00286171
0.0087535
-0.00201079
-0.0140662
0.0130448
-0.00238835
0.00289822
-0.00870481
-0.0181372
0.00383494
-0.00212808
-0.0110152
-0.000221912
0.00341906
-0.00637289
0.00311963
0.0025364
-0.00430248
-0.0167452
0.00445747
0.00528619
0.00629084
-0.00611084
-0.0109625
0.00214352
-0.000972533
0.00571362
0.0240303
0.00746704
0.00821262
0.00126944
0.00177106
0.00432351
-0.000465135
-0.00253582
0.013812
0.0135846
-0.0133617
0.0185271
0.0151151
-0.00389022
-0.00343433
-0.00347333
0.000534843
0.0134764
-0.00263148
-0.00537531
-0.00544448
0.0184952
-0.000900003
0.0101023
0.00620892
0.0176762
0.000480097
0.0178255
0.0040257
0.00293384
0.00617504
0.000612165
0.00473355
0.00569865
-0.00284042
0.00067612
0.00520553
0.00586143
-0.00164549
0.0014056
0.00685582
0.000743208
-0.000847951
0.00878217
0.0024753
-0.00194974
0.00304907
-0.0108222
0.0089987
-0.0182176
-0.00559479
0.00494788
-0.00278373
0.00574184
0.00600075
-0.00547249
0.00567753
-0.00186146
-0.00171884
-0.00359932
0.00395788
0.00638482
-9.04154e-05
0.000170316
-0.00166451
0.00526735
-0.00681136
0.00119477
-0.00372495
-0.0116285
0.0129914
0.000411913
-0.0126278
0.0071896
-0.00444221
0.0186263
-0.00168509
-0.00218839
0.017255
0.00591038
0.00232681
0.00926931
0.0115854
0.00175701
-0.00417971
0.00702028
-0.00626761
-0.00677503
-0.00168992
-0.00641074
-0.0082998
-0.0163502
0.000799177
0.00366653
-0.00195949
0.0162447
-0.00337664
0.0106722
0.012064
0.014377
0.00698685
0.00531472
-0.00383899
0.0193417
-0.0131364
-0.00730002
-0.0069975
-0.00302318
0.0125689
-6.55842e-05
0.0103398
-0.00675647
0.00345367
-0.0017109
0.00200491
0.00338913
-0.0185517
0.0104317
-0.0091792
-0.00267038
0.00321314
-0.00718204
-0.00010296
-0.00501956
-0.0104581
-0.00519194
-0.0102775
0.00838462
-0.00644538
0.010365
0.0266264
0.017159
-0.0295383
0.00218146
-0.0130287
0.00812084
0.0090037
-0.003294
0.0358891
0.0367573
-0.013984
-0.000157128
-0.0106504
0.000195495
-0.00418218
-0.003579
0.00529051
-0.00221386
-0.0157253
-0.0092139
0.053872
0.00565554
-0.0207411
0.0138982
-0.00834312
0.0150145
0.00373956
0.0116053
-0.015232
-0.0042227
0.000911873
-0.0209324
-0.0283048
0.0212537
0.009393
0.0310071
0.0062425
0.0731876
0.0226985
0.00346957
-0.000374674
0.0163406
-0.00656815
0.0138719
-0.0175668
0.00410855
-0.0239125
-0.000281176
0.000100459
-0.0245452
-0.0217921
-0.0173907
-0.0192056
-0.0110068
0.0192702
0.0532669
0.0037521
0.0992454
0.00908479
0.00843452
0.0110485
-0.0501844
0.00200101
0.00409215
-0.0100573
-0.0160354
-0.0232168
-0.0168106
0.00456267
0.0102479
-0.00312966
0.0280226
0.0035006
-0.0191528
0.00380274
0.00272296
-0.00705663
-0.0138247
-0.0264005
-0.000589669
-0.00829098
-0.023151
0.000801242
-0.00996216
-0.0211741
-0.017163
-0.00507116
0.00988083
-0.00664169
-0.0173871
0.0236622
0.0235644
0.0163648
-0.00305059
-9.49141e-05
0.0247659
0.0723809
-0.00511869
0.00661288
-0.00532816
0.0173922
0.0130922
-0.0198234
-0.00610257
0.0373908
-0.0584118
0.0255409
-0.0130793
0.0576806
-0.0208655
-0.00907898
-0.00494174
-0.0127344
-0.0095591
0.00636359
-0.00709303
0.027977
0.0314675
0.0268563
0.0112851
-0.0478172
0.00423755
-0.0191013
0.000183472
0.0303207
0.0169291
-0.0287074
-0.0180692
-0.000492658
0.0109724
-0.00058211
0.0311227
-0.00866709
0.0115655
-0.022665
-0.012378
-0.0145662
-0.00895515
-0.0169692
-0.00892982
-0.00183943
-0.0195981
-0.00365836
0.0334114
0.0167934
0.0457103
5.20164e-05
0.00633247
0.0415149
0.0832173
0.0130524
-0.0190684
0.00914241
0.0207995
0.00557061
-0.00139772
-2.07948e-06
-0.00472659
-0.0075556
-0.0183945
0.0178551
-0.000883912
-0.00642119
0.00560255
0.00181072
0.0125117
0.0100765
0.00490537
0.00854557
-0.00180616
-0.00652351
-0.0205094
0.00672658
0.0360825
-0.00968457
0.0087376
0.03901
0.00437222
0.00791403
0.0086217
0.00668871
-0.0235703
-0.0387965
0.0324575
0.0118495
-0.00508079
0.00117335
0.0181927
-0.0492682
0.0356994
-0.0190979
0.0244327
-0.0199847
-0.0452592
0.00771675
0.0104292
0.0521587
-0.011859
-0.0870821
0.000984859
0.0289855
0.00765268
-0.0500451
-0.0170686
0.0250096
-0.0253106
0.00782201
-0.0109601
-0.0182788
0.00849608
-0.0154554
0.00615591
-0.0403858
0.0142473
-0.0266068
0.000572305
-0.0399767
0.0359377
-0.0189857
-0.00330178
-0.0152319
0.0134074
0.0349591
0.0239049
-0.0188684
-0.0784727
-0.00546282
0.0116791
-0.0204859
-0.00819535
0.0255481
-0.0209743
0.00244503
0.0301956
-0.0254176
0.0111273
0.00902218
-0.0380137
-0.0127412
0.00844119
0.00203265
-0.0177517
0.0102229
0.0412514
0.0116763
-0.00550236
-0.0102266
-0.0112429
-0.00513512
0.0107657
0.019562
-0.088653
-0.000140953
0.0279514
-0.00763082
0.00703901
0.0010942
0.0393803
0.035365
0.0189692
-0.0136372
-0.0352458
0.0295524
0.0228677
-0.0190572
0.0206229
0.00673769
0.0116521
0.00499562
0.0177103
-0.000464187
0.0268241
-0.0115603
-0.0147736
0.0155141
0.0337571
0.00156879
-0.00641159
0.0246368
0.00854265
-0.0117266
0.028081
0.0108719
0.00626903
-0.0388555
-0.0389067
-0.010135
0.0298403
-0.00922309
-0.00231478
0.000647342
-0.0240561
-0.0283132
0.00155681
0.072709
-0.0427933
0.0238974
-0.0118351
0.0333144
0.0114954
-0.0555921
-0.024139
0.0118806
0.0714915
0.0887448
0.0366085
-0.00481554
-0.0314865
-0.0155599
-0.0316376
0.0162731
0.0160994
0.0559492
0.031046
-0.0709414
0.0276804
0.0140344
0.012595
0.0093951
-0.0232823
0.0367328
0.0113747
0.0256013
0.0231625
0.00151704
-0.0107736
-0.00558277
-0.0445925
-0.00741693
0.027638
-0.0105996
-0.00782104
0.0156281
0.00677597
0.0379724
0.0545797
0.00716232
-0.00259693
-0.0375451
-0.0120621
0.0490579
0.0267292
-0.000774486
-0.0716839
0.00693011
-0.0293814
-0.033887
-0.0721781
0.00559555
-0.0475517
-0.00788623
-0.0213099
0.0133229
-0.0089496
0.0472048
-0.0393913
0.00561717
0.0267795
-0.014329
0.0162613
0.0087176
0.0374861
-0.00592294
-0.0128734
-0.0513119
-0.029757
-0.0126969
-0.0479632
-0.00465809
0.0105697
-0.00539495
-0.00208746
0.0707616
0.0199281
0.0120058
0.00805767
0.0244272
-0.00446508
-0.0276072
-0.0220542
0.0028816
0.0040756
0.0158369
-0.0311205
0.0250613
0.00998419
-0.00762712
-0.0198054
-0.01493
0.0419508
-0.0615816
-0.00342938
0.0112634
-0.0421115
0.0271093
0.0221966
0.0193999
0.0564281
0.000794484
-0.00557992
-0.00425682
0.0781264
-0.0236526
-0.011646
-0.00962516
-0.00444991
-0.0176109
0.00611451
-0.0050282
0.0100446
-0.0304976
-0.00297766
0.0199923
1.00394e-05
-0.0509427
-0.00150339
0.0316654
0.00887494
0.00648729
0.0066622
0.011677
0.0740721
0.0162427
-0.0174203
-0.0197399
0.0387965
-0.0303912
0.0151981
0.0261317
0.0208898
0.0304128
0.00673421
0.0492287
0.000259331
0.00181915
0.0242428
-0.0589844
-0.0056802
-0.0259482
-0.0227039
0.00123541
-0.0526599
-0.0263241
-0.000666003
0.00741456
-0.0645298
-0.00707219
0.059407
0.0166745
0.088144
-0.00172875
-0.0144085
0.0202051
-0.0762356
-0.00209864
0.0172717
0.00629531
0.0422963
-0.0611777
-0.0068242
-0.0166887
0.016703
-0.0223884
0.00404188
0.000778613
-0.0240724
-0.0262896
0.00507038
0.00351729
-0.0139745
0.0355148
0.0119456
-0.0136698
-0.0309577
0.00296683
-0.00480732
-0.00908886
-0.0178004
0.00990929
-0.0129899
0.00829379
-0.0294566
0.0370504
0.0197971
0.000944823
-0.0101123
-2.95581e-05
0.0788204
0.0172884
0.00710359
0.074063
-0.00130887
-0.00526464
0.011312
-0.0127073
8.58322e-05
0.0187528
0.0341049
0.0264969
0.0155724
0.0476909
0.0312183
-0.00704754
-0.0207232
-0.016237
-0.0411289
-0.0326092
0.00781992
0.00324183
0.020493
-0.0201249
0.0593346
-0.0010931
-0.00592478
0.0289532
0.00147506
0.0145692
0.0145851
0.00896383
-0.0291566
-0.0217113
-0.0299948
-0.00805374
-0.0256711
-0.0230376
0.0150335
0.0164612
0.0408692
0.0108693
-0.0466501
-0.00460918
-0.00762183
0.001406
0.00627683
-0.0218104
0.0401759
0.0355027
0.0617238
-0.00189644
-0.027015
-0.0131893
0.00370198
-0.0428792
-0.0276868
0.0135716
-0.0285047
0.00351438
0.0591633
-0.00162649
0.0100459
0.000719903
0.0398626
0.0126961
0.0190042
-0.0226021
-0.00964149
0.0258188
0.0157429
0.0320409
0.00366131
0.00432964
-0.000704099
-0.0256037
0.00421974
-0.0266855
-0.00230214
0.0012266
-0.00361421
-0.0132404
0.029717
0.0048986
-0.0411794
0.00905913
-0.0362701
-0.056331
0.0504063
-0.00858528
0.0346844
-0.00557531
-0.00857216
-0.0331606
0.00886418
-0.0268531
-0.014946
-0.00277496
0.0419599
-0.0013494
-0.000406498
0.0695508
0.0194969
0.04748
0.00636047
-0.00302366
0.0178198
0.0392655
-0.00540078
0.019066
0.059046
-0.00771104
-0.00792223
-0.00572248
-0.03972
0.000133128
-0.0268522
0.00287516
0.00771809
-0.00349705
0.0179704
0.0116939
0.0165885
-0.0586093
-0.00611445
0.00312768
0.00600444
0.0330767
0.0151026
-0.0215208
0.0119648
-0.0047376
-0.0202782
-0.0197677
0.000702131
0.0136139
0.0147837
-0.0204944
0.0824892
0.0376872
0.000295146
0.00436624
0.0163986
0.00435449
-0.00871047
-0.0446133
0.0344115
0.000829474
-0.0233977
0.0125224
-0.0698673
-0.0212316
-0.00125872
-0.00710124
-0.100861
0.00507217
-0.0047409
0.018761
0.0845319
0.015919
-0.0171204
0.0295131
-0.0746762
0.0331278
0.0269024
-0.00121701
0.0148425
-0.0106771
-0.00840498
0.0103317
-0.00564393
-0.0361072
0.0288418
-0.0298253
-0.0118754
-0.0411961
0.0104818
0.00339196
-0.0254868
0.0200138
0.0312304
-0.0187054
-0.0625536
-0.0170663
0.0102878
-0.00421742
-0.0232626
-0.00922427
0.037249
-0.00825982
-0.0302366
-0.0175058
0.0445884
0.0068036
0.0135402
-0.0180105
0.0213086
0.0543551
-0.0156274
0.0141569
0.000279162
0.0638481
0.0293727
0.0213127
-0.00473008
-0.023235
-0.0161932
-0.0166688
0.0599968
0.0487798
-0.00223856
-0.00761626
-0.0177401
-0.000248248
-0.0115432
0.0130697
-0.000129934
0.0423791
0.0435725
-0.0307797
-0.0106478
-0.0202254
0.0235165
-0.00955278
0.00136964
0.0121786
-0.0095759
0.0342843
0.0131432
0.0119498
-0.00644541
0.00685074
-0.0657475
-0.000946835
0.000494321
-0.0155296
-0.0250782
0.000754451
0.0173218
0.00373047
0.0343932
-0.024135
-0.00645131
-0.0127501
0.00794166
0.0218765
-0.0158824
-0.0135781
0.0064385
0.00569735
-0.0156004
-0.0399149
0.000250962
-0.00629452
0.0084799
-0.0142605
-0.0357688
0.0130433
-0.0025498
0.0190263
0.0253816
-0.00010469
0.0178195
0.00512972
0.0380006
0.000641403
0.0116051
0.00134733
-0.0242652
0.00819295
-0.0285099
-0.00503473
0.0195345
0.0169649
0.00969482
0.00482497
0.0176238
0.028571
0.00891407
-0.00432106
0.00578021
-0.00748632
0.0112411
0.0137963
-0.0125665
-0.00314266
-0.029261
0.00948567
-0.00623272
0.02529
-0.0194123
-0.00493943
-0.0237248
-0.0153152
0.0530234
-0.0426148
0.0102938
-0.017665
-0.00832152
0.00302896
0.00303779
-0.000320491
-0.0235732
0.00398836
-0.00492068
-0.0216239
-0.00216072
0.0242014
0.00782356
0.00424386
-0.00811242
0.0152687
0.00392917
-0.0108305
0.0159372
0.0150958
-0.00483708
-0.0115602
0.0146805
0.0372198
0.00271433
0.0050688
-0.00010606
0.00140669
-0.0022671
0.0126509
-0.0210316
0.00176352
0.000869367
-0.00560287
-0.0157549
-0.00470722
0.00713314
0.00224608
-0.012271
-0.00846318
0.0032209
0.0110519
0.0178885
0.0108448
0.00777227
0.0203632
-0.00929743
5.15876e-05
0.00845625
-0.00217607
0.00525951
0.0213484
0.0134705
0.00529006
0.0203066
0.0223373
-0.0154876
0.0116915
-0.0266481
-0.00401237
-0.0195388
0.00529245
0.0462113
-0.00213527
0.00102739
0.00601466
-0.0306456
0.0115525
0.0111339
-0.0117492
-0.0280768
-0.00633929
0.00529224
0.000497329
0.0156964
0.0167503
-0.0303344
0.0226405
0.00853271
-0.0134216
0.00102377
0.000417538
0.0313214
-0.0014228
0.00579847
0.0201055
0.0124707
-0.0301443
0.00291962
-0.00971261
0.0228451
-0.00843988
-0.00491336
0.00135322
-0.00440039
-0.00327981
0.00899266
-0.0195908
-0.00796223
0.00916338
0.00840442
-0.0268875
-0.0170567
0.00133225
-0.00289236
0.00313275
0.0206711
0.00860729
-0.00376452
-0.00866215
-0.0160206
-0.00946366
-0.0112001
0.00747038
0.00956968
-0.0218013
0.00240884
-0.00414136
-0.0127984
0.0185694
-0.00983844
-0.00321492
0.00400381
0.0147983
0.00284457
-0.000624299
0.0135922
-0.0246993
-0.00495497
-0.00112505
0.011066
-0.00950777
0.0258204
0.0124894
-0.00285359
0.0149903
0.0172232
-0.00292135
0.00602703
-0.00556371
-0.0184479
-0.00383262
0.0150686
-0.00470359
0.00702353
-0.0149033
0.0171443
0.000465331
0.0147259
-0.00101357
0.00713525
0.013157
0.0234332
0.0033557
0.0105077
-0.00400582
0.0296467
0.00956956
0.0211516
-0.00526445
0.0429495
0.00194968
-0.0139601
0.00439696
-0.0139798
0.00303698
-0.00525848
0.0133109
0.00832468
0.0201124
-0.010649
0.010954
-0.00324484
0.0121357
0.0111215
-0.0119055
-0.0257894
0.00518021
-0.00844718
-0.00147209
0.003322
0.0024085
0.00816377
0.0109731
0.0244385
-0.00517445
0.00600639
-0.0144989
-0.0117827
0.00425735
0.0143616
0.00740439
0.00862407
0.00723676
-0.00440529
0.0168862
0.00729754
-0.00135031
0.0156361
-0.0098794
0.00519719
-0.0035538
0.0114534
-0.0133346
-0.00771547
0.0074779
0.0113634
-0.00245285
-0.00654512
0.00413417
-0.00993804
0.00294266
0.0134372
0.00438274
-0.000591394
0.000767327
0.00536748
-0.00969942
0.00945149
0.0120572
0.00648386
0.00980669
0.0108999
-0.00522255
-0.0177273
-0.003357
-0.00343571
0.00569737
0.00824732
0.00784793
0.00169467
0.0126941
-0.00557513
0.00662598
0.00776848
0.00223429
0.0001012
0.00545749
-0.00708984
-0.00150827
0.0123798
0.0103147
-0.0023811
0.00505958
0.00746001
-0.00195103
-0.00585856
0.0102217
0.00864612
0.00790548
0.0141277
0.0021338
0.00123245
-0.00102253
-0.00387094
0.00987144
0.000797772
-0.0172071
-0.00117939
0.00886898
0.0215233
-0.0106273
0.0126811
-0.00107589
-0.000808421
0.00318999
0.00704237
0.000457895
-0.00342769
0.00954193
0.0104368
-0.000414584
0.00554791
0.00736022
0.00520862
0.00866998
-0.0168844
-0.00660295
0.000675825
0.0135951
0.000312453
0.00442043
-0.00810705
-0.00482894
-0.00600461
0.00547773
-0.0131898
0.00344218
0.00822704
0.0225294
-0.00212812
0.021278
-0.00028657
0.00262524
0.000983706
-0.014486
-0.0115286
-0.00221297
0.00752344
-0.00130225
-0.0179303
0.0120423
0.00803056
-0.00101817
0.00941558
-0.00235188
0.00623607
0.00216735
-0.00592427
0.0112997
-0.00436518
0.00757353
-0.0159605
-0.0119499
-0.00682978
0.0109043
-0.00470479
0.0133933
-0.00701335
-0.00389775
-0.00750915
0.00856562
-0.0142566
0.00433084
0.00573652
0.00843429
-0.00287336
-0.00230236
-0.00466084
-0.00978299
0.000578258
0.00264081
-0.00579907
0.00939457
-0.00834226
0.0100031
0.015399
0.00214306
0.00851412
0.00712569
0.000500431
-0.00468944
0.0053309
0.00763523
0.0135609
-0.0146841
0.0127331
0.00242793
-0.0108684
0.00438633
0.00456199
-0.00288704
-0.00731498
0.00674286
0.00422938
-0.00297442
0.0105166
-0.0113685
-0.0184861
-0.00532101
0.0128238
0.0196783
0.00452132
0.000108117
0.00501042
-0.000414093
-0.0026539
-0.0071607
0.00788782
-0.00400026
-0.00437223
0.0164116
0.00134077
-0.00589389
-0.01103
0.00332397
-0.0143655
-0.0133797
-0.000871283
-0.0094386
-0.00451489
0.00222211
-0.00109296
0.0153803
-0.000646798
-0.00712271
-0.00538826
0.0026514
0.0109226
0.00447164
0.00996146
0.00338422
-0.00165275
-0.00315526
-0.000343495
0.000440371
0.00303708
0.00892032
0.000955308
0.015809
0.00821938
0.0030877
0.00122717
0.0018405
0.00288234
0.00728048
0.00576483
0.00774537
-0.0220001
0.00592138
-0.00910114
-0.000759026
-0.00156282
-0.00404066
-0.000467122
-0.00777936
-0.0129787
-0.000368849
-0.00167821
0.0119879
0.00826512
-0.00640431
-0.00813289
-0.00231322
0.00238195
-0.00927708
0.0121111
0.00148704
-0.00321363
0.00360482
-0.00132497
-0.0121228
-0.00312686
0.00225961
-0.00912099
-0.00900237
0.00539289
-0.00749393
-0.00223682
-0.00268822
0.0119455
0.00535054
-0.00359886
0.0148032
-0.00402328
0.00249984
-0.00514743
0.00111641
-0.0154051
-0.00512796
0.00735219
-0.00370013
-0.0102494
0.00632729
-0.010067
0.00521904
-0.00763375
0.00337329
-0.0177989
-0.0154468
-0.00729516
-0.0107254
-0.00250039
-0.00334695
-0.000444377
0.00476318
-0.00493811
-0.00944538
0.00294768
-0.00786878
0.000912193
-0.00527944
0.0150016
-0.0113084
0.00562666
-0.00237258
-0.000131487
-0.00731143
0.000545699
0.00718883
-0.0135938
0.00630881
0.00650668
-0.00497545
-0.00252753
0.0112703
-0.0118842
0.0131366
-0.0150315
0.00649112
0.000135368
0.0122588
-0.00179957
0.0115326
0.0064901
-0.00518524
-0.00200535
-0.00411143
0.00602613
0.0126401
0.00829675
-0.00697316
-0.00130697
-0.0185805
-0.00338781
-0.00379388
0.0125258
0.00391197
-0.00663632
-0.0172129
0.00441187
-0.0095069
0.00522211
-0.00748908
-0.00364959
0.00133923
0.00215668
0.00897877
0.01054
-0.00659392
0.00305808
0.0096667
0.0123211
-0.00482476
-0.00513317
0.0213209
-0.0017396
-0.00893712
0.0130254
-0.0109654
0.0112817
-0.0180319
0.00423077
-0.00817644
-0.0133243
0.00337353
-0.0133644
-0.010077
0.00803728
0.000620425
0.00449633
-0.00641023
0.00494791
-0.00508197
-0.00450986
-0.0136969
-0.00121619
0.00215782
-0.0073159
0.0165362
-0.0139851
0.000650733
0.00159772
0.0128184
-0.00131362
-0.00477756
-0.0135465
-0.00645657
0.00928197
0.0101594
0.00175661
-0.00953931
0.0164944
0.00136523
0.00150828
0.000484438
0.00133619
0.000136138
-6.42852e-05
-0.00427389
-0.000125118
-0.00856505
-0.0106627
-0.00717816
-0.00679159
-0.000216101
0.00662623
-0.00379735
-0.00750202
0.0100217
0.000794551
-0.0234598
0.0148617
0.0109468
-0.0195434
-0.0214066
-0.000624696
0.0130102
-0.00183086
0.0100329
-0.00283499
-0.00563458
-0.00613393
0.00656665
-0.00561173
0.0149637
0.00252164
-0.00458996
-0.00388356
0.00320396
0.00637627
-0.00391739
0.00930451
-0.000710818
-0.0119424
-0.00295316
0.00363164
0.00126978
0.0112855
-0.0073842
0.00140626
-0.0140461
0.00341007
-0.0121696
0.00826549
0.017396
-0.0124803
-0.00523422
-0.000739362
-0.00316008
-0.0120142
-0.00323992
-0.00166263
0.0117262
0.00878285
-0.00602182
0.0197119
-0.00754823
0.00114722
-0.00125724
0.00270332
-0.000644689
-0.00610292
0.00345224
0.00363211
0.00339456
0.00785322
0.0131166
0.00178528
0.00837937
0.00369704
-0.0100826
0.0125207
-0.000307219
-0.005918
0.00216964
0.0176513
-0.00223386
-0.00616774
-0.00445875
-0.00698601
-0.0199101
0.004454
0.0113604
0.00365508
-0.0178151
0.00241294
0.00356484
-0.00426885
0.00622421
-0.000573835
0.00783722
0.00290738
0.00207975
0.011151
-0.00285653
0.0191213
0.00344602
-0.0042761
0.00201393
0.00093821
0.00375768
0.00699304
0.00311842
0.00436103
-0.000639631
-0.00744502
-0.00401258
-0.000452609
0.0121204
-0.00743164
-0.00900226
0.00758843
-3.7592e-05
0.0156766
-0.0225776
0.00155326
0.0567377
0.0126704
-0.0497789
-0.0189134
0.00133108
0.0182137
-0.0125051
0.0127003
0.0432337
0.0332763
0.0384082
-0.0141187
-0.00880979
-0.00635523
-0.0104135
-0.0149628
-0.0113981
-0.000440373
0.0397681
0.0146527
0.0062756
0.00303731
-0.010705
-0.0077826
-0.034386
0.0173106
0.0433159
-0.00655801
0.00348864
-0.00660028
0.00764819
-0.035439
-0.00406441
-0.0273297
-0.00428122
0.0223802
0.012993
0.0160371
0.00964899
0.0308528
-0.00451239
0.0118987
-0.0013153
-0.0032318
0.00725265
-0.0191661
0.0347184
0.0221688
0.00264971
-0.00977171
0.000616657
-0.0277567
-0.0270156
0.00958196
0.0286154
-0.0147119
0.012989
0.0260025
0.0191661
0.00725638
0.0147945
0.0120152
0.00693164
0.0107367
0.000307957
-0.0169654
0.0164355
0.0154617
-0.0125052
0.00417519
-0.00385764
-0.0172024
0.00473473
-0.00331384
0.0043196
0.0256219
-0.0320077
-0.0156627
0.0315336
0.0117107
0.000200636
-0.00736049
0.0124619
-0.00970795
-0.00433918
0.0175819
-0.0162278
0.0177501
0.00266948
-0.0347996
-0.00168765
0.0293393
-0.0208571
0.0125355
-0.00100178
0.0159423
0.0145984
0.00485855
-0.0137981
-0.0389313
-0.0279216
-0.0126846
-0.0285378
0.00983787
0.0542397
-0.0524068
-0.00488127
0.0085602
-0.00591906
0.0386522
-0.0173852
-0.0167613
-0.0174557
0.0395493
-0.0148846
-0.0191575
-0.0109022
0.0160191
0.0367465
0.0435935
-0.00136546
-0.028237
0.0202302
-0.00834104
0.00854226
0.0115932
-0.0179347
-0.00368335
-0.0115225
-0.0116804
0.0121124
0.0701399
-0.0313479
0.0291416
-0.0224331
0.00907469
0.0003207
-0.0260696
-0.008611
-0.0279736
0.0271183
0.00082171
-0.0240212
0.0251917
-0.0215514
0.0135027
-0.010747
-0.0453025
-0.00937977
0.0896588
0.0275254
-0.0338362
0.00303072
0.046355
-0.0169089
0.0257143
-0.00870097
-0.00564616
0.00294281
-0.0496932
0.00152044
-0.00499933
-0.00764768
-0.00371598
-0.0178093
0.00554617
0.000828784
-0.0096155
-0.0116083
0.0748242
-0.0101923
-0.0360194
-0.0404735
-0.000171107
0.0136065
0.013535
0.00997668
0.00609378
-0.0172451
-0.0093918
-0.0266556
0.000756649
-0.041145
0.00100606
0.0109096
-0.00219911
0.0032255
0.0317497
0.00767356
0.0116774
0.000132123
-0.0124018
-0.00104464
0.0118107
0.0394851
0.00559441
0.0228659
-0.0228727
-0.0416401
0.0405204
0.04925
0.0364599
-0.0548095
-0.0428877
-0.0307284
0.0407533
0.0775654
-0.00580664
0.0078486
0.00149045
-0.0247892
-0.036203
0.05953
0.0195025
0.105925
0.0627666
-0.0192177
0.0139921
-0.032231
0.0122551
-0.0303804
-0.0062579
0.0152001
0.0131832
0.0244216
0.0822946
0.00183778
-0.00460895
0.00328284
0.00887428
-0.0411185
-0.0576909
0.00146547
-0.0428608
0.0260086
0.0168713
0.0318816
0.0718041
-0.0263787
-0.000559892
-0.0247923
-0.00874746
0.0510613
-0.00645372
-0.00349684
-0.0462206
0.0341461
-0.0654198
0.0313291
-0.0722936
-0.00369489
0.023606
0.000533588
-0.0727529
-0.00206593
-0.0141788
0.0229277
-0.0533116
0.00822527
0.0219873
-0.001502
0.0770015
-0.0415717
0.028021
-0.000137707
0.00499446
0.00822734
-0.0447096
-0.0288508
-0.00791143
0.0285368
0.00509137
-0.0147011
0.0221494
0.124533
0.000881873
0.002584
0.00919145
-0.0208484
0.0453723
-0.0803727
-0.000961149
0.00729088
-0.0335375
0.0144445
-0.0835083
-0.0234167
0.0373517
0.00831011
0.0144009
-0.00979816
0.0224084
-0.0322583
-0.00545245
-0.00413167
-0.00841329
0.083697
0.00643003
0.0195636
0.0125935
-0.0185971
0.0139433
0.011473
0.0617066
0.0600714
0.0336041
0.0187959
-0.00725741
-0.00873317
-0.00964822
0.0488571
0.0111055
0.0697861
0.022887
-0.0600355
-0.0431391
0.0320133
0.00337751
0.009685
-0.00391739
0.0129748
-0.0216784
-0.0068758
0.0551867
0.00412905
-8.86839e-05
0.0255145
-0.0335327
-0.0262351
0.00292375
-0.00853886
-0.0122237
0.000101347
0.00319366
0.0231307
0.0935972
-0.0138509
0.00149627
0.00845416
0.0161908
0.047734
-0.0120597
-0.00555225
0.003246
0.0197012
-0.0412811
-0.0168983
-0.0181528
0.0290341
0.000706718
-0.00171415
-0.0324084
-0.00248353
-0.00212235
0.00975753
-0.0173689
-0.0280089
0.0177326
0.0034384
0.0450946
0.00529797
-0.00707312
-0.0105881
-0.0298889
0.00266668
-0.0471732
0.00295353
-0.000724194
0.0210184
0.000907288
0.0123736
0.0117155
0.0262271
0.0098573
-0.00345367
0.0188209
-0.00982194
0.0122236
-0.00120035
-0.0535247
-0.00231334
-0.0418833
0.0369013
-0.00491853
0.00862951
0.000568751
-0.0138654
-0.0199799
0.017013
0.0181572
-0.0519266
-0.00715703
0.0446022
-0.00409541
0.0334269
0.0161474
-0.0142012
-0.00525819
-0.0165411
0.0188158
0.0450734
0.0189449
0.0535804
-0.00393196
0.013428
0.00922005
0.00396982
-0.0329266
0.00313499
-0.004299
0.0584974
0.0398695
-0.034214
-0.0195508
0.00511104
-0.0123014
-0.0198867
0.00355724
0.0387944
-0.0170717
0.0634558
0.00367191
-8.87761e-05
-0.0361828
0.0152871
-0.0655236
0.0202769
-0.0175739
0.0145621
-0.0268834
-0.0302624
0.00206936
0.00713584
-0.0275189
-0.0368447
-0.0189142
-0.00153906
-0.00647058
0.067511
0.0161356
-0.00166163
0.0010097
-0.000665055
-0.0619286
-0.0281508
0.0195779
0.0228992
-0.0136379
-0.0138207
-0.018765
-0.00286629
-0.00434041
0.0140006
0.0451519
-0.0101751
0.0222679
-0.00109703
0.040719
0.0256906
0.0347104
-0.00673133
0.00293133
0.0003276
-0.0349558
0.00150003
0.010748
-0.00816681
0.01961
-0.000230557
0.0133805
0.0207821
0.0203562
0.0230175
-0.0181664
0.0234087
-0.00688227
0.0070471
0.0121339
-0.0177481
0.00078657
-0.00151251
-0.0152412
-0.0118381
-0.0126864
-0.0159129
-0.0191496
0.00474524
0.052652
-0.0306017
-0.012658
0.0571216
0.0187859
-0.025226
0.0188342
-0.00324138
-0.00502284
0.011917
0.0214273
0.0224034
0.0301579
0.0149102
0.0524396
-0.0159077
0.00109262
-0.000886421
-0.0302015
-0.0295835
-0.0079096
-0.0245111
-0.00252227
0.0592931
0.0563094
0.00563008
-0.0156088
0.0066839
0.0337052
0.0329965
0.006113
0.00741449
-0.0370475
0.00523176
-0.0314282
-0.0158776
0.00497729
0.00298667
0.00642572
-0.0155899
0.0589114
0.0060709
-0.0029863
-0.0175264
-0.0338388
-0.00247374
0.0122074
-0.043396
0.00570343
0.0130156
0.0390943
-0.0117754
-0.0545644
-0.0259634
-0.0378908
-0.0267691
-0.0488366
0.0459193
-0.0188403
0.00166665
0.070912
-0.0238667
-0.00340862
0.0248449
-0.0166943
0.0134079
0.00411621
-0.00174341
-0.0284552
0.00536675
0.0215822
0.0208121
-0.00254342
-0.00423113
-0.0222055
-0.0070316
0.00661093
-0.0273959
-0.0214168
0.0154878
-0.00402685
-0.0358249
0.00253245
0.00992812
-0.0279763
-0.00750195
-0.0253329
-0.0271208
0.0438809
-0.00135542
0.0368577
-0.0298043
-0.0172291
-0.00266753
0.0356584
0.00195901
-0.00117885
0.0135032
0.0280527
0.0649549
0.00945685
0.0864242
0.00793516
-0.0572523
0.00720378
0.0177448
0.0116477
0.0111659
-0.023334
0.0632729
0.00845187
0.0220576
-0.0116609
0.010686
-0.0328955
0.00618423
-0.00722264
0.00408976
0.0313696
0.0288788
0.0201777
-0.0124845
-0.00786047
-0.00316319
-0.00926346
0.0307507
0.00331007
0.0479365
0.0216405
0.00693363
-0.0306952
-0.00581626
-0.0153112
-0.00981658
0.0111022
0.0604075
0.00517121
0.0189445
0.0299517
0.0136178
0.0552058
-0.0231546
0.0245067
0.0106562
-0.0101389
-0.0215346
0.0157367
0.0363868
-0.0084291
-0.00423914
-0.0566332
-0.00889739
0.0109441
-0.017029
-0.0773648
0.00718128
-0.0657673
0.0175806
0.00484082
0.00246745
-0.00253849
0.0149973
-0.00763602
0.00756561
0.013083
-0.00218969
5.75229e-05
0.0141552
-0.0144749
0.0030709
0.0243326
-0.0156271
-0.00212698
0.00585503
-0.00685544
-0.0107831
0.0361438
-0.0138942
-0.00654133
0.0581545
-0.00826789
-0.00943324
-0.0477712
0.0332188
0.0243109
0.0175709
-0.0139372
0.00736629
0.0151834
-0.00767854
-0.0314871
-0.0190907
0.0605607
-0.00784058
0.000147398
0.000699083
-0.00689201
-0.00676639
0.0171243
0.02323
-0.00817685
-0.0257387
-0.0262975
0.042044
0.0112104
-0.0175735
-0.007107
-0.0188198
-0.0284719
0.0126844
-0.0157154
0.000933685
-0.00435894
-0.0186881
-0.0125462
-0.0226944
0.0186668
-0.00676713
-0.00505162
-0.0343796
-0.0123428
-0.018022
0.000350752
-0.0244797
0.0117635
0.00978399
0.035936
-0.021614
-0.0243141
-0.00440325
0.000585532
0.00453917
0.0327925
0.0351082
-0.0456333
-0.00353365
-0.00174113
0.0211691
0.0341891
0.0210036
0.0108652
-0.0214448
-0.00494274
-0.0174826
-0.00921649
-0.0057431
0.00881546
0.0216081
0.016888
-0.00508237
-0.0260086
0.0217154
0.0160634
-0.00840056
-0.0372461
0.014482
0.0217209
0.00707622
0.000876486
0.00175831
0.0381436
0.0253257
-0.000895529
-0.0084647
0.0098904
-0.00386938
-0.0128846
0.00420881
0.0367299
0.00168249
-0.0173281
0.0140037
0.0449011
0.012012
0.0507826
-0.0173
0.00187038
0.0449838
-0.00719249
-0.00110094
-0.018487
0.0166146
-0.00336997
-0.0276584
0.0148553
0.0429375
0.00718075
-0.0108195
-0.0433612
-0.0146802
0.0355675
0.00133177
0.017163
-0.015924
-0.0245966
0.000400291
0.0146519
-0.0114212
0.00962013
-0.011624
-0.0124444
-0.00238834
-0.0129541
-0.00716394
-0.0106998
-0.00285327
-0.00637824
0.0116563
0.00137662
0.00799387
0.015835
0.0140216
-0.011146
-0.00151364
-0.00508331
-0.0213144
-0.0103201
-0.0244529
-0.0061123
0.0173705
0.00480903
0.00495209
-0.00103443
-0.0108905
-0.00935584
0.00523989
-0.0114885
-0.000400161
0.0167064
-0.00137588
-0.012025
-0.00617225
0.00217223
0.00366914
-0.012965
-0.00561715
0.00814098
0.00119852
0.0291961
0.012226
-0.0033488
0.0141228
0.00456591
0.00421104
-0.0177407
0.00347051
0.0215324
-0.0124031
0.0121036
-0.00761869
0.00864164
-0.00734278
-0.00329818
-0.00393698
-0.0262819
-0.00641499
0.00273362
0.00021729
0.00935084
-0.0206872
-0.0030769
0.00312787
0.00564477
0.0171386
-0.0114456
0.00121475
-0.00801224
-0.00668549
-0.00622266
-0.0271243
-0.00845964
0.00346387
-0.00953944
0.0147571
0.0091635
-0.00398569
0.00221506
0.00723468
0.00597348
0.00387318
-0.00600906
0.0204158
0.00157006
0.00199717
-0.0175289
0.00148536
0.0192815
-0.00250142
-0.0161777
-2.94068e-06
0.0131295
-0.00369752
0.0198808
-0.0115867
-0.000464232
-0.0192763
0.00867429
-0.0199261
-0.0033979
0.00111592
0.0104257
-0.00288818
0.0147914
0.00182473
-0.0186005
-0.0057637
0.0136063
-0.00210116
-0.00549522
-0.00507856
0.00186537
0.00289153
-0.0165299
-0.0154323
-0.00689345
0.0244505
-0.00831921
-0.00617584
0.00816202
-0.00851984
0.00186982
-0.00512724
0.0139251
0.0172676
-0.0164176
0.013343
0.00397202
0.0102888
0.0360169
0.0149069
0.00672571
0.00860894
0.00638642
-0.00214265
0.00552121
-0.0145284
-0.00501682
-0.00723161
0.00148272
0.00825042
-0.00500699
-0.0240117
0.0238268
-0.00128704
0.025716
0.0143396
-0.0021974
0.00731065
0.0246101
0.00576175
-0.00076748
0.00122766
0.023707
-0.0114971
0.012518
-0.0154922
0.0353638
0.0110918
-0.00637255
-0.012698
-0.0135965
0.00961099
-0.00945988
-0.0175296
0.0120809
-0.000200405
-0.0119203
0.00614717
-0.0138088
0.00794856
-0.000970792
0.000521541
-0.0086758
0.00646536
-0.00882189
0.0121941
-0.0090478
0.0113929
-0.0121173
0.00639619
0.00383705
-0.00945312
0.016925
-0.0135353
-0.00071031
-0.00430244
0.00865045
-0.00340443
0.0013415
-0.000463794
-0.0211425
0.0227338
0.00163171
-0.00665944
0.00795007
0.000687075
0.00743823
-0.00444687
-0.000137844
-0.00700565
-0.00241692
0.00990108
-0.00427126
-0.00462566
0.00541659
0.00445659
0.00219648
-0.0148153
-0.00145509
0.00734421
-0.00912374
-0.00620298
0.00329592
0.0118961
-0.00223894
0.00458055
-0.00965795
0.000863418
-0.00488564
0.0107915
-0.00327455
-0.00156756
0.00384432
0.00603674
0.0101644
-0.012463
0.00432584
0.00425464
-0.0151225
0.0116146
0.0101099
0.00121509
-0.00388872
-0.0111098
0.0147869
0.00448504
-0.00680487
-0.0133462
0.00772623
0.00655434
-0.00856155
-0.00624863
0.0147106
0.0122853
-0.0142083
0.00564558
0.0133353
-0.00718589
-0.0184957
0.00416498
0.000908419
0.00168972
0.0214603
-0.0121918
-0.00348407
-0.00851898
0.0127424
0.0041088
-0.00717889
0.00420661
0.00560004
-1.84285e-05
-0.00632474
0.0100769
-0.0114569
-0.012357
0.00692729
0.0201283
0.00635981
0.00130719
-0.00336266
-0.00424169
-0.00802921
-0.00759641
-0.00823471
0.00198273
0.00029016
0.00322573
0.00563178
0.0098575
0.029091
-0.00165655
-0.00754034
0.00375285
0.0104398
0.00646904
3.67552e-05
-0.000950881
0.0106138
-0.00241268
0.0175959
0.00327231
0.00339275
-0.01632
0.00431079
0.00462221
0.00417018
0.00466076
-0.00191238
-0.0144872
0.00564588
0.00573722
-0.0129746
0.00561429
0.00961529
-0.0043051
0.00236196
-0.00249945
0.0106524
-0.00654576
-0.00193716
0.00892162
-0.00529371
0.0090229
0.00777962
0.00364854
-0.0051917
-0.0108553
0.00592111
-0.0086446
0.00541159
-0.0142363
0.00317844
0.0211503
-0.00759716
0.00726664
-0.000417393
-0.0102185
0.0156595
-0.00256961
-0.0200236
-0.00456684
0.000344361
0.000829496
0.00608666
-0.0115089
-0.00773054
0.00204741
0.00641029
0.00739824
-0.00803401
0.00659851
-0.00169066
0.000974246
-0.00195216
-0.00652398
-0.0155065
-0.012294
0.00267828
0.0109029
-0.00314004
0.00975805
-0.00960379
-0.00294445
0.0013948
0.00102967
-0.00701191
-0.00214254
0.0016835
0.0134825
-0.0076325
-0.0122384
0.0145826
-0.005532
0.00127435
0.00771437
0.00792958
0.00308525
-0.0139756
-0.0052292
-0.00733923
-0.0141484
-0.0140852
-0.00243889
-0.0100233
-0.0090281
0.00845813
-0.0139588
0.00766481
-0.00217729
0.00609051
0.00381463
-0.00153984
-0.0115688
0.00119965
-0.0186954
0.0192443
-0.0139131
0.00464007
0.00299334
-0.00956715
0.00305256
-0.00229844
0.00525426
-0.00554956
-2.31816e-05
0.00971128
-0.00150803
-0.00431553
0.00533997
0.0220285
0.00602998
-0.00652752
0.00715639
0.00115689
-0.00776251
0.0182825
-0.0029871
-0.00746667
0.00690096
-0.00286396
-0.0130924
0.0124156
0.00190995
0.0144034
0.00609509
0.00383259
0.00232522
-0.00644377
0.0150331
-0.0271753
0.00212181
0.00092606
0.000525449
0.00861125
0.000716921
0.0186583
0.0141536
0.00721722
0.00302897
-0.00910294
-0.0134762
0.00936493
0.0102147
0.00059493
-0.01022
0.005539
-0.00555163
0.00697337
0.0264961
0.00879803
-0.000278778
-0.00286177
-0.00773499
0.00974933
0.00251754
-0.003255
-0.0033317
-0.00734226
0.00324958
0.00419102
-0.0156509
0.0140068
-0.00994992
-0.0111515
-0.00627963
-0.00821978
0.00786898
0.00116796
-0.000323785
-0.0151493
-0.00577144
0.0055987
0.00351388
0.020329
0.00606232
0.0144682
-0.00217563
0.00637336
-0.00385454
0.00203095
-0.0027828
0.00554479
-0.00895835
-0.0120539
0.00604171
0.00769821
0.00795165
-0.0149096
-0.000376939
0.00378673
0.0092246
0.00448857
-0.00372769
-0.00653853
-0.0130389
0.00703251
-0.00154187
3.84748e-06
-0.0133618
-0.0062951
0.0097378
-0.00160545
0.0199075
-0.0128831
0.00406168
-0.00602148
-0.0076216
-0.0129801
0.00464389
-0.00530948
-0.00868389
-0.00129388
0.0118392
0.00877644
-0.00904657
-0.00978786
-0.00454559
-0.00719395
0.00194811
-0.0135127
0.00204867
-0.00336028
-0.0075171
0.00243977
-0.00332312
-0.000916501
0.0068672
0.00108936
-0.0107122
0.0100562
0.000914359
0.00242109
0.00884353
-0.0119343
0.00581354
0.00623579
-0.00730712
-0.00719058
-0.0135066
-0.0017345
0.0269022
0.000913853
-0.0106147
0.000112435
-0.004506
-0.00093613
-0.0164058
0.000223475
-0.0039983
-0.004251
0.000546
-0.00574552
-0.00446633
-0.0059587
-0.00745819
0.0080886
0.00241251
-0.00025049
-0.00981345
0.00721625
0.000385374
0.00176759
0.0207116
0.000816006
0.00925039
-0.00332227
0.0152856
0.00876744
-0.0036661
0.00536653
3.02309e-05
-0.00668021
0.0160651
0.000370477
-0.000318296
0.00587798
-0.000409886
-0.00304445
0.000993515
0.00286732
0.0125683
-0.00446878
0.00947565
0.00592967
-0.000728407
-0.00581792
0.00154277
0.022703
0.0025245
-0.015235
-0.00902067
0.00164004
0.0019732
-0.00339316
-0.00220151
-0.0017505
-0.00659999
-0.00527718
-0.0182191
-0.00213701
0.00225242
-0.000677172
-0.0112179
-0.0114187
-0.019595
-0.0143384
-0.0110313
0.0105024
-0.00228667
-0.0120993
-0.00634906
0.0105465
-0.00761958
-0.00216575
-0.0081847
0.000123291
0.00400595
-0.00811982
-0.000893418
-0.0164317
-0.0174915
-0.00573393
-0.0129045
-0.000947418
0.00903482
0.0122636
0.0151739
-0.00531495
0.00766395
0.00127723
0.00524407
0.000366178
0.0136176
-0.00976094
0.0176789
-0.00982672
-0.00936382
0.00566212
-0.0072387
0.00145341
-0.0042406
-0.0106978
-0.00092396
-0.0078522
0.000564525
-0.00737695
0.00675542
-0.00145271
-0.00108187
0.00296278
-0.0146411
-0.00695011
-0.00104419
0.00326035
-0.00148487
0.00799632
-0.0160432
-0.00288121
0.00184424
-0.00244382
0.00225047
-0.0133773
-0.00397253
0.000254135
0.00420052
-0.0123593
-0.00638083
-0.0072101
0.00476684
-0.0050006
-0.0111621
0.0163298
-0.00142514
-0.00750995
-0.00709082
-0.00714442
-0.00237252
0.00193458
0.00515617
-0.00418724
0.00179808
0.0114042
-0.00557581
0.0128384
0.0157957
-0.0154872
-0.00476751
0.00797708
0.0131093
-0.0155274
0.00988102
-0.00390542
-0.0319893
0.0278721
-0.0857652
-0.0206692
0.000383305
-0.0271034
0.00547929
0.0268853
-0.00564974
-0.00757593
0.0199777
-0.0053585
0.0221652
0.0332276
0.0128398
-0.00161088
0.0108991
-0.00072929
0.0365315
0.0231861
0.00366776
0.00199918
0.0724417
-0.0227176
0.0177256
-0.000283704
-0.0125914
-0.0176804
0.0183972
-0.0189751
0.00491807
0.0396674
0.0260851
-0.000942851
-0.0230168
0.0395129
0.0253759
-0.00160713
-0.0278428
-0.0337279
0.0146399
-0.00418701
0.0141429
-0.00902239
0.0615976
-0.000912927
0.0181061
0.0270266
-0.0217184
0.0319486
0.0278263
-0.0193887
0.00501805
0.0359894
0.0322338
-0.03084
-0.0060945
-0.00753668
0.0194791
0.00273885
-0.00126283
0.0860799
0.00131551
0.0197631
0.000907301
-0.0134422
0.0476825
-0.0124718
0.00101623
-0.0038244
-0.00253796
0.00457429
-0.0067459
-0.000783303
0.00697032
0.0014608
0.00969401
0.0166944
0.00785099
-0.00131826
0.0254725
0.0390569
0.00834657
-0.00202766
0.0439929
0.0214048
-0.00821075
0.0273867
-0.0153206
0.0469537
0.0027149
-0.0207459
-0.00490636
0.00401125
-0.00727026
0.00176732
-0.0243332
-0.00305884
0.0196593
-0.0204242
-0.137504
-0.0200407
0.0409468
0.0314551
-0.0320017
0.0229722
0.00881215
-0.0553173
-0.00210368
-0.00420864
0.0172962
-0.00660625
-0.0316414
0.0497445
0.0173932
0.0243793
0.0746544
0.0156962
0.0221544
-0.022026
-0.0466965
-0.0186298
-0.0293912
-0.00321655
0.0459551
0.0851997
-0.0424336
-0.0063926
0.0126136
0.0024194
0.0226723
0.0988498
0.0905996
-0.0872609
0.00447015
-0.0313148
-0.00199296
0.0747102
-0.000732125
-0.0154598
-0.0670651
-0.0137792
-0.0626949
-0.0310745
-0.00121242
0.0179472
-0.000689789
-0.0145858
0.0181218
-0.0317957
0.0834051
0.0531111
-0.0203365
-0.0268881
0.0282883
-0.0172396
-0.00467294
0.000861105
-0.0124245
0.0127488
0.0179492
-0.00741637
-0.0156972
0.0392255
-0.0186272
-0.0090827
-0.0176638
0.00747193
0.056754
0.0216197
0.0511211
-0.0090631
0.0361263
0.0974835
-0.019188
0.0153442
0.152889
-0.0125501
-0.0220603
-0.0465134
0.0266186
0.0600726
-0.058195
0.00618156
0.0427695
-0.0279884
-0.0317189
-0.101974
-0.0177959
0.100437
-0.000522411
0.0598943
0.0361257
-0.0622282
-0.0128478
-0.000438005
-0.0301199
0.0135751
0.0964591
0.0145727
0.00955721
0.0363027
0.00188382
-0.00621524
-0.0124251
0.0140336
0.0104604
0.0102882
0.00444829
0.0431462
0.00778362
-0.0334224
0.0213124
-0.000880277
0.0108099
0.0181397
-0.0239867
0.0099004
0.047743
0.00127754
-0.0182942
-0.0135694
-0.0131674
-0.00736113
0.0409751
0.0602121
8.9612e-05
0.0218917
-0.00378546
-0.0145818
-0.069227
0.0166684
-0.00707481
-0.0366202
0.0238363
0.0374843
0.0136915
0.097898
0.0299367
0.00905056
0.0686295
-0.0273261
0.0245686
-0.0090146
0.00916044
0.0258734
0.0227288
0.0252639
0.0110404
-0.0300366
0.0014748
0.0546835
0.0102247
-0.0728886
-0.00399061
0.0015859
-0.0182415
-0.0293816
-0.0227754
0.0144727
-0.00177566
0.0372876
-0.0166683
0.0142432
0.0126451
0.00166999
-0.0362566
0.000573945
-0.0132498
-0.0180352
0.0237314
0.0212001
0.00288465
0.00891792
0.00482159
0.00968067
-0.0086256
0.0618594
-0.0206951
0.000878848
-0.00862391
-0.013103
-0.00277859
-0.0095342
0.0348736
0.0267236
-0.0050138
-0.0145079
0.00780451
0.0101591
-0.00381355
-0.0316272
-0.0359661
-0.0117455
-0.0203438
-0.0160954
0.0581299
0.0046732
0.0181299
0.0357468
0.00373205
0.00667127
-0.0107492
0.0314732
0.0404712
0.00993892
0.0161657
0.0208475
0.01964
0.0225343
0.0687125
-0.00359752
0.0580524
0.0295906
-0.026834
-0.0324017
0.0149951
-0.00196986
-0.00977557
-0.0107793
0.00971415
0.0160938
0.00383656
0.0832048
-0.00794267
0.0267657
0.0178369
-0.0144369
-0.00317283
0.0107811
0.0051063
-0.0425381
0.012374
-0.0395945
0.0355838
0.0675287
0.0308877
0.0018806
0.00115576
-0.0190782
0.0406231
-0.0343379
-0.0084268
0.00728923
0.033011
-0.0278009
0.0211264
-0.00524771
-0.0322989
0.0344822
-0.0254696
-0.0595001
0.021681
0.00284498
0.0236363
-0.0175915
-0.00907217
-0.0117473
-0.00166003
0.0230125
-0.0239971
-0.00119455
-0.0192844
0.00151684
0.00169177
-0.00690882
0.00158629
0.0321973
0.0124995
-0.00950382
0.00211936
0.0222691
0.0416177
-0.00346548
0.0281426
0.0522703
-0.00615487
-0.00913626
-0.00454191
-0.0338936
-0.0046157
-0.00158386
0.0255381
-0.00263156
0.0249834
0.00510464
0.030611
-0.0187632
0.00493791
0.00493647
-0.0350534
-0.0156056
-0.104526
0.03629
0.156814
0.0211719
-0.0170082
0.00117983
0.087375
0.0147564
-0.0269246
0.0306444
-0.0256196
0.0154681
0.00299965
0.0277718
0.0253927
0.0269922
-0.00430714
-0.0178843
-0.0715723
-0.0142402
0.0410629
0.00317329
0.0714267
-0.00762696
0.0399168
0.00775239
-0.0581649
-0.0251635
0.0476618
0.0258809
0.000455801
0.0188985
-0.000465826
0.0118994
-0.0424983
0.0789504
0.00627752
-0.00400211
0.00593358
-0.0799417
0.0117237
-0.0250614
0.0674045
-0.0052206
0.0394019
0.0293542
-0.031848
-0.0006724
0.000844158
-0.00289625
-0.0029402
0.0854108
0.00432021
0.0265491
0.0119339
0.0588342
-0.015745
0.0107294
-0.0237404
0.00522741
-0.00663863
0.0193685
-0.0299409
-0.016336
0.0186478
-0.00330052
0.0160946
-0.0209538
0.0136402
-0.0164136
-0.0134753
0.0189305
-0.0164473
-0.00527601
-0.024483
-0.0733174
0.0409679
0.017159
-0.0835045
0.027952
0.00482911
0.046096
-0.00521719
-0.0190144
0.0497199
0.0184747
-0.0367293
0.0124811
0.00571625
0.113828
0.0123982
-0.0395755
0.0268586
-0.0228293
-0.0127085
0.0295113
0.0351182
-0.0205022
0.0315929
-0.018006
0.0296466
-0.00165053
-0.0361101
0.04026
0.0728924
-0.0224389
0.0140954
0.0252437
-0.042097
-0.00107759
0.0181568
-0.000649376
0.0133333
0.0109635
0.00196501
0.00653062
-0.0580408
-0.00849742
0.0948279
0.0174667
-0.0153408
-0.0271333
0.00723025
0.00283714
0.023796
0.00268539
-0.0166587
0.0565786
0.00446948
0.00722685
-0.00714341
0.0922137
-0.0284466
0.0377023
-0.0170276
0.086866
0.0435808
-0.042878
-0.00626477
-0.0588038
-0.00794232
-0.00498719
0.00934247
0.00957573
-0.00054295
-0.00778956
0.00345318
-0.0150549
-0.0143745
0.0569368
0.00591528
-0.0768069
0.0324971
0.0675772
0.0173998
0.0758019
-0.0189842
0.00607715
0.0173391
-0.114969
0.00493811
0.0122102
0.0173821
-0.0110038
-0.0259358
0.00103938
0.00483637
0.0144142
-0.0183919
0.0727233
-0.0338956
-0.0144515
-0.0577502
-0.021439
0.00616114
-0.0134645
-0.0150922
-0.000206976
-0.0140765
-0.00867941
-0.011478
0.0057496
0.000371713
-0.00321753
-0.00779424
0.0121897
0.00477964
-0.00911223
0.0386768
0.029725
0.0321461
0.025829
-0.0215121
0.0222155
0.0742998
-0.00456848
0.103877
-0.0103009
-0.0100084
0.023069
0.014168
-0.000890199
-0.0438494
-0.0151219
0.0462874
0.0502714
0.0636496
0.00383768
-0.00498776
-0.0361421
-0.00785291
-0.0215539
0.0555575
0.0322664
0.110447
0.026213
-0.0160737
-0.00807815
-0.029545
0.000839645
-0.0119719
0.00759043
0.0709685
-0.00425979
0.0312685
-0.00915616
0.00837092
-0.0209213
-0.00297786
-0.05867
0.0570585
-0.00981714
-0.00910601
-0.0207789
0.00803114
0.113743
-0.00616233
0.0580231
-0.0234796
0.00715851
-0.026227
-0.0277145
0.0530316
0.0122809
-0.0045721
-0.0383226
0.00750638
-0.0960376
-0.0209642
-0.0191621
-0.00109073
-0.038702
0.012095
-0.0320873
-0.00591188
-0.000798884
0.0302312
-0.00772621
0.00578036
0.028671
-0.00230819
0.0109072
-0.00642626
0.0069802
-0.0113695
-0.00362937
0.015694
-0.0606131
0.00712271
-0.0215905
0.0320857
0.0517549
-0.0078147
-0.0118776
0.0806425
-0.0223426
-0.0176778
-0.0203242
0.0266347
0.0137483
-0.00494933
-0.00829139
0.0191376
0.00837864
0.0033453
-0.0570069
0.00770648
0.0351784
-0.000850531
0.0122391
0.0220518
0.0277287
-0.0124142
0.0212248
-0.0202367
-0.0274253
-0.14206
-0.0165209
0.0203319
-0.0389391
-0.0423763
-0.0110855
-0.00825153
-0.0589154
0.0294842
0.00749755
-0.0188204
-0.00634077
0.00530091
-0.0144975
-0.0174523
0.00632561
-0.0147275
-0.0222351
-0.0479062
0.0334308
0.0530337
-0.0187418
0.0219521
0.00137663
-0.0140224
0.0205834
-0.002895
-0.0642172
0.00487385
0.0220714
0.00388944
-0.000468903
0.0151798
-0.00527013
-0.00272927
-0.021561
-0.0106076
0.0608239
0.00306741
0.0263858
0.028618
-0.00143216
0.0142131
-0.0232904
-0.0105454
0.0447557
0.00774124
0.00709171
0.00741998
-0.00987897
0.00896753
0.0300997
-0.0111235
-0.121521
0.0140221
-0.0150872
0.00626899
0.00762574
0.00671635
0.108637
0.0207282
-0.0156487
-0.0127796
-0.0485407
0.0572006
0.00276694
-0.0089335
0.020373
-0.00620395
-0.00676498
0.0197612
0.0451986
0.0295726
0.033229
0.0225074
0.00465183
0.00666181
-0.0134325
0.0165948
0.0101465
0.0471645
-0.00354244
-0.00302355
0.030481
0.0297295
0.0159513
-0.0317196
-0.00420263
-0.0182456
0.00789071
-0.00072341
-0.00274823
-0.0233204
-0.0607299
-0.00772295
-0.00236772
-0.0408297
0.00151716
-0.00700693
-0.0101781
-0.00530808
0.0271896
0.0469016
0.00123187
-0.0235955
-0.0473259
-0.0596944
-0.0339903
-0.00248236
-0.00103031
0.00770302
-0.0142271
-0.0142679
-0.0147503
-0.0579821
-0.0250269
0.0504295
-0.0352193
-0.0292891
-0.0589701
-0.00235482
0.0184257
-0.0156805
0.0336595
-0.0698835
0.0153945
0.00201202
-0.00042048
-0.0136291
0.106925
-0.0274865
0.0155175
0.0555799
0.011146
0.0333323
-0.0323601
0.0216187
-0.0541899
-0.00357245
-0.00740738
-0.0334958
-0.00154826
-0.0217765
-0.0251007
-0.00397226
-0.0125215
-0.0105032
0.0655016
0.0262568
0.0236057
-0.0140968
-0.00627796
0.0331274
0.0851666
-0.00534913
-0.0014973
-0.0108911
-0.0151649
0.0115168
0.000430135
-0.000598203
-0.0243596
-0.0163333
-0.0199041
-0.0121368
0.0372021
-0.00264087
-0.0181952
-0.00169751
0.0151691
-0.020934
-0.010153
0.0329147
0.00743634
0.0372956
-0.0143648
-0.00803947
-0.014666
-0.00308787
-0.009595
-0.0572507
0.00470209
0.0223132
-0.0069541
0.0128372
-0.0194311
-0.00287127
0.03187
0.0018881
0.0161019
-0.012849
-0.070339
0.0788614
0.00504186
0.000964428
-0.000848917
-0.0313169
-0.0153694
-0.00157451
0.00257771
0.0141283
0.0142811
-0.0079663
-0.00910138
-0.00392263
-0.0116222
-0.00822536
0.0189461
0.00065776
0.0214939
-0.0159527
0.00260385
-0.0118487
-0.0012969
0.0127202
-0.015241
0.000217842
-0.0108725
-0.0035977
0.0100247
0.0120175
-0.00727967
-0.0101718
-0.0290631
-0.00424288
0.0072043
-0.00270672
0.0200084
0.0162542
0.014415
-0.00407994
0.0206676
-0.00947262
0.0117652
-0.0026947
-0.00417188
0.0135412
0.0146346
0.0033212
-0.00154882
-0.0196319
-0.00406594
-0.00725367
0.0116153
-0.00478134
-0.00215218
0.0135769
0.0401154
0.00822658
-0.0269229
-0.00225373
-0.000524089
-0.00822666
0.0112762
-0.00731442
0.0380613
0.00540341
-0.0163761
0.0121397
-0.0129423
-0.00537551
-0.00573261
0.00145476
0.0115183
0.0296169
-5.75278e-05
0.00610148
0.0117024
0.0107661
9.69183e-05
0.000195789
-0.011456
0.00435333
-0.00222023
-0.00209052
-0.00396015
0.00486361
0.00418866
0.013714
0.0152902
0.000920386
0.00883244
-0.0171234
-0.0145449
-0.00879772
0.00435768
0.00414419
0.00733916
0.00879642
-0.00978408
0.00781098
0.000102049
-0.00938842
-0.00452478
-0.00485758
-0.0100308
-0.00743941
0.00224574
-0.0081261
-0.00297959
-0.00729792
-0.0140879
-0.00470059
0.00480709
-0.000472652
-0.00860054
0.00926968
0.00614555
0.00784041
0.00872373
0.0106245
-0.002042
-4.01239e-05
0.0113534
-0.00314755
0.00517348
0.0132312
0.00435213
0.00229707
0.00158807
0.0139887
-0.0264134
-0.00773414
0.0103822
0.00174397
0.00143505
-0.0124409
-0.00744606
-0.00916627
-0.00844065
0.00543369
-0.00807808
0.0150774
-0.00212285
-7.63297e-05
0.00122252
0.0102366
-0.00755706
0.00824984
0.0097992
-0.00268734
0.00195066
0.00156487
-0.0166273
0.00594303
0.00166846
0.0097964
-0.000528666
0.0022707
-0.00954019
-0.00334142
0.00718994
0.0126525
-8.98365e-06
0.0117832
0.00818868
-0.00505854
-0.010494
0.00729083
-0.0024208
-0.00365092
0.00747661
0.00878319
0.00690218
0.00850375
0.00380855
-0.00502182
-0.00378904
-0.00880493
0.00608172
-0.00940853
0.000798968
0.0024638
0.0106781
0.00828385
-0.00182617
-0.00344661
0.0128841
0.0130751
-0.00137831
0.00537562
-0.00742041
-0.000211808
-0.00960788
0.00825366
-0.00953982
0.00443372
-0.000628144
-0.00354525
0.00148399
-0.00643833
0.00158603
-0.000587286
-0.00495209
-0.00961098
0.0114382
0.0017144
0.00387365
-0.00223133
-0.0103613
0.00210075
-0.00636894
-0.00580299
0.0017875
-0.00474443
0.0125287
-0.00429359
0.0032556
-0.0075565
0.00252691
0.0087011
-0.00860233
0.000704411
-0.000722045
-0.00532917
0.00922031
0.00447772
-0.00230366
0.0130446
0.00150692
0.00766864
-0.0113226
-0.00775654
-0.00450542
-0.013269
-0.00440173
0.00733275
0.00674765
-0.000369658
0.0128465
-0.00154321
-0.00494908
-0.0160843
-0.000684339
-0.0062638
-0.00111667
-0.00395949
0.0162489
0.00643872
-0.00331237
-0.00412959
-0.00347719
0.00959122
-0.0127159
-0.00735276
-0.003831
-0.0113162
-0.00797947
-0.0125216
0.00889771
-0.00193576
0.00733726
0.00699633
0.00103307
-0.000959124
0.00164033
0.000468605
-0.00388571
0.00106868
-0.0162432
-0.0158001
0.00219976
-0.00841161
-0.00442123
0.00389057
-0.00496386
-0.00724927
3.92184e-05
0.00188016
0.0125513
-0.0116668
-0.00828694
-0.00203431
0.0119781
0.0051144
0.0239491
0.00638212
0.00693327
0.00306681
-0.00302423
-0.00151202
0.015824
6.29504e-05
0.00998253
0.00397696
-0.0183099
-0.00282993
0.000130659
-0.007205
0.00660926
0.00578763
-0.0144565
-0.00043904
-0.00119036
0.0012489
-0.00634131
0.003553
0.0143077
-0.018056
0.00482298
-0.0139673
-0.00546756
-0.0078003
0.0100836
0.000498503
-0.00954583
-0.00798162
0.00949153
0.00765314
-0.00279249
0.00260571
0.0243684
0.000831077
0.0115987
-0.000334958
-0.00635469
0.0014694
-0.00737274
0.00815818
-0.00322237
-0.00433196
0.00138875
-0.00846757
-0.00161273
0.00363342
-0.00511638
0.00349179
0.00672222
0.00424851
0.000497119
0.00034972
-0.000198875
0.00897426
0.0121866
-0.00224027
0.0103808
-0.000284515
0.0186629
0.0173593
0.00650164
0.00457848
0.00262438
0.00229131
-0.00422489
-0.010198
-0.00349761
-0.00441044
0.00150548
-0.00155016
-0.00958043
0.00401087
0.00495761
-0.00777503
0.00389593
-0.000128449
0.0108118
-0.0157647
0.00382977
0.000924164
0.00640703
0.00249134
0.0232408
0.00406038
-0.00380156
0.0126004
0.00958436
-0.0168782
0.00408078
0.00325389
0.0113443
0.0100902
-0.0141009
-0.00172994
-0.00102451
0.000679043
0.00746397
-0.00157926
4.03281e-05
0.00938247
-0.000740245
-0.000790947
-0.014654
0.00568604
-0.0157211
-0.00335962
-0.00586841
-0.000838702
-0.0150348
-0.00508519
0.00447481
0.00416768
0.023568
-0.00432597
0.0176472
0.011138
0.00839279
-0.00679151
-0.00199152
-0.00780335
0.00717126
-0.00156267
-0.017298
0.00278607
-0.00669473
-0.00144616
-0.00623633
0.00369144
0.0098663
0.0205163
-0.0191608
-0.00161771
0.02088
-0.00271157
-0.0064447
-0.0122087
-0.00111419
0.0142938
-0.00507657
0.0118375
-0.0157759
-0.00965431
-0.0141525
-0.0058989
-0.00539291
0.0187815
-0.000815738
0.0058588
-0.00819094
0.00922226
-0.00123576
-0.0122117
-0.00198517
0.010768
-0.00543071
0.000372883
-0.00150666
-0.00539356
-0.0099117
-0.00114487
-0.00512238
-0.00700766
0.0046371
0.0149232
0.0123727
-0.00240519
0.00221263
-0.00695142
0.00732537
0.00164654
0.00560674
-0.00661905
0.00394088
-0.000775126
-0.00017719
0.00493474
0.00853922
0.000772473
0.0128673
0.0162515
-0.0150637
-0.00530563
0.00546502
-0.00379555
-0.00610541
0.000325693
-0.00340272
-0.00044118
0.00331806
-0.00683596
0.0212813
-0.0164013
-0.00442161
8.28495e-05
-0.0108462
-0.00626503
0.00703919
0.00673504
0.000909283
0.00546305
-0.0161331
0.00325909
-0.00932214
-0.000826173
-0.00224432
0.000541093
-0.00237369
-0.00216369
-0.0110331
0.0138083
0.00149687
-0.00867073
0.0102602
-0.00604717
-0.00411381
-0.00180849
-0.00974108
0.00260087
-0.00180664
0.0100055
-0.00508387
-0.00831028
-0.0112036
0.00137604
-0.00255796
-0.00844418
-0.00574344
-0.0131908
-0.01215
-0.00172664
0.0124118
0.00126677
-0.00175144
0.00456479
-0.0058946
0.00499295
-0.00528173
0.00811779
-0.0125266
0.0122423
-0.00265818
0.00572304
0.00273524
0.0157435
0.00741104
0.00635452
0.00955393
-0.00530961
0.0139272
0.00815064
-0.00968394
0.00964017
-0.0044804
0.00588453
0.00658178
0.0182996
-0.0102546
-0.0266021
0.000150359
-0.00503491
0.000441049
0.00376534
0.0050464
-0.0102053
-0.00859568
0.00378157
0.0102262
-0.0121016
0.0261384
0.00100967
0.0171656
-0.0138718
0.0165677
-0.00266589
-0.0187523
-0.00438334
0.00682573
-0.00215745
-0.0173329
-0.0161786
0.0036579
-0.00462518
0.00262385
-0.00648397
-0.0114426
0.00482072
0.0136001
-0.00295761
-0.00101027
-0.0196322
0.00827922
0.00568736
0.0019998
0.00369842
-0.00704619
0.0161587
-0.0124606
0.00948589
-0.00142989
0.00279257
-0.00215189
-0.011009
0.0155498
0.0431227
-0.00903811
-0.114566
-0.0143509
0.00504374
-0.0319343
-0.0582777
0.012336
0.0387915
0.00749772
0.0728898
0.0216179
0.0255987
-0.00642605
-0.00638735
-0.0331369
0.0273184
0.00212302
0.0981112
0.000455173
-0.0586225
0.0306804
0.0664718
0.000471236
0.0072953
